8.435560145019219136e-02,-1.865625809546858638e-02,1.553794322587873089e-02,-1.109391649435575999e-01,-6.044598408435430947e-02,2.775711209054815276e-02,-9.799797819450437042e-02,5.590754921580876058e-02,1.469103967779115394e-01,-3.775421183856211838e-02
3.430686367164426098e-03,9.066044112813928524e-02,2.532298862373716375e-03,-1.201055875289420843e-01,-7.199137318068095370e-02,5.779153350468918537e-02,6.698499347405101334e-02,-1.897821468002780509e-02,2.402837964791251779e-02,-5.756258675585933238e-02
8.789102013104263533e-02,-1.056990432673221569e-01,6.211816390054411552e-02,-8.246587160878848799e-02,-4.280643323351528140e-02,1.406626000045229918e-01,-1.134815619613724902e-01,8.958062027480109824e-02,-5.696396170514525514e-02,-8.223882345673667882e-02
-1.470116896638495874e-01,-7.848875498321095101e-02,2.179018910707197776e-02,-7.444923342372795905e-02,-5.799266949079798228e-02,8.414029265804121027e-02,-4.831550973313131214e-02,2.595323357948375875e-03,-1.435346412218099776e-02,1.160364828805803550e-01
9.959262192908485689e-02,-1.069687175661539202e-01,1.227798198918722272e-01,1.081318631052197443e-01,7.882121611939710282e-02,7.887670358312887098e-02,1.155609617252927601e-01,5.296920480517777752e-02,1.272865101726740888e-01,-1.443428281922615464e-01
8.578767307743015436e-02,8.711577175763937642e-02,-7.444456350566452940e-03,2.281866692217113246e-02,-3.629089326784372405e-02,1.083339590144677400e-02,-1.196073906514747570e-01,-1.288961607285283861e-01,1.349521287353719068e-01,-9.974093499410457975e-02
-8.227480388827020097e-02,3.829288738041702889e-02,-1.200744460518060053e-01,-1.339466490949314803e-01,6.894461002262652904e-02,5.067916987532461448e-02,-9.267445398434576154e-02,-1.188111236651467340e-01,-9.478128832101032075e-02,1.152362427526706645e-01
6.582693297567293600e-02,1.325763330480552449e-01,3.840376766120315311e-02,-1.407967839851249070e-01,-1.192323782866833159e-01,6.146633494396966380e-02,1.200830962010705771e-01,-1.105294894218956520e-01,-1.153169642923873028e-01,-3.701258983406258141e-03
8.328958481704265560e-02,4.266166761636941418e-02,-4.792714308405186807e-02,7.989411582421993008e-02,8.173279291587076667e-02,1.080729486772128711e-01,-4.309624684130052008e-02,-1.029834895697090136e-01,-1.184614268673261361e-01,-1.722421124188561192e-02
-5.434047275116561659e-02,-1.017532374851292665e-01,1.433105567630687249e-01,3.577000709692079727e-03,1.346904354703654383e-01,7.528574532201678937e-02,1.245416347513527422e-01,-1.117987633127284219e-01,7.690168505961048062e-05,1.260661264702944984e-01
6.432351009525205665e-02,1.360684735992348793e-01,-4.380435250608634423e-02,-3.026958581582131491e-02,-9.578663684824878510e-02,1.490568418845666099e-01,-7.487695602003331674e-02,9.892790555661032381e-02,2.874860893890912594e-03,-5.261919230949121951e-02
-2.658368459153967467e-02,-5.828863077921155045e-02,8.112124448437157964e-02,1.151662563873534495e-02,7.491784181221011751e-02,-6.158711910836263403e-02,6.438506935902221784e-02,-4.919403678262830593e-02,-6.918683633387434639e-03,-1.276151204406491546e-01
2.622578078911633193e-02,-1.180246293748095088e-01,1.468879521705809821e-02,1.051200217603064646e-01,9.225813873160240708e-02,7.467664857911165965e-02,3.065392056130322729e-03,-1.022838424793603429e-01,9.356351414288996415e-02,-3.923039081455692578e-02
4.403175508369960856e-02,-9.260070303029713235e-02,4.396702837773436290e-03,-1.044945175072408972e-01,5.373912980327752442e-02,-3.595791306529941278e-02,-5.734612553981999206e-04,9.035309907658486961e-02,-6.182892649414267749e-02,9.634488259137508059e-02
2.443152274888152342e-02,-3.730199456890878618e-02,4.687900999379296385e-02,-2.091088790423378807e-02,1.149909705276725702e-01,3.147414086116856469e-02,-8.196825856568218382e-02,-1.357153505284137696e-01,-7.847554573597968763e-02,1.355646112215510291e-01
-8.191468741192324543e-02,6.789296655132756597e-02,1.683205907053703099e-02,2.731803888501119215e-02,-6.488142750691432148e-02,-9.735391496674736245e-02,6.931041060452167168e-02,-1.330561801840015879e-01,1.374973783764763258e-01,9.082617529080141971e-02
1.355215645429383720e-01,7.387716915357156466e-02,-1.419622272954966236e-01,-8.240121211087199360e-02,1.369556570092590742e-01,4.308588951829803171e-02,-8.356634434831912428e-02,-8.406455652712108151e-02,1.866808470956513033e-02,1.204456369599869736e-01
9.873642231809032221e-03,1.787678060592162721e-02,-6.293303187270461729e-02,8.511011867339263182e-02,-3.241157279306171313e-02,-1.433087488546113120e-01,-1.492885094659635314e-01,1.735907694687827130e-02,-9.919144243746594314e-02,1.301562302995496190e-01
5.590241090664829771e-02,-1.112594099103278167e-01,1.446443364853325642e-01,-1.270227001939739087e-01,-6.872276269662039305e-02,3.722060872264204567e-02,9.718077638624916803e-02,-1.454772262533940430e-02,-2.505534380245877379e-02,3.657344377867718932e-02
-9.594745837145249312e-02,-1.880990364183973695e-02,-4.942291753004990351e-02,-4.145647912565102178e-02,1.202120632354402308e-01,-9.813054238585200428e-02,2.184603029566348220e-02,-1.438718600405240466e-01,7.535301447473707892e-02,6.209261869320664706e-02
1.077702049615052726e-01,-4.974543092669507505e-02,-1.211095970662110777e-01,-8.503217800728657405e-03,-6.429050213842878170e-02,1.046330200633341367e-02,1.477674839010484631e-01,-4.455987180539058845e-02,1.368188005357468817e-01,-1.923235366655504097e-02
6.717223449935644242e-02,1.244155030137806539e-01,-8.272983132559724728e-03,1.048241063201994228e-01,9.718656300117184399e-02,4.945442382999315489e-02,1.219612263976324329e-01,1.362261999643877564e-01,-9.839465491996574054e-02,-8.404796409029881288e-02
1.107809599600552974e-01,-1.081312940994059169e-01,-3.364875359576836866e-02,7.230583471948670571e-02,-4.159777073922650559e-02,-7.946053060566091175e-02,7.171026008560452136e-02,1.161731726821381427e-01,1.451173380154513748e-01,-6.920256879209731038e-02
1.137998577406145462e-01,-9.947625973965298907e-02,1.207422906009234798e-01,-6.343638058367018218e-04,-1.382351782697087972e-01,2.452829938778830488e-02,6.797351980757443402e-02,-1.430251835788183545e-01,-5.911330844628531755e-02,-1.235245928314479408e-01
-1.024718163503482438e-02,1.468499355358701408e-01,1.466781019041449585e-01,4.293492255875552832e-03,-1.400261074146500750e-01,6.322913037857733065e-02,-3.067030295522099603e-02,2.862605410202362366e-02,6.453342412522011795e-02,-1.185880914160397925e-01
-1.461553429373585178e-01,8.537952638920018322e-02,1.033451521556776054e-01,1.191333971624952970e-01,1.364968903540077216e-01,-9.539373021018759946e-03,5.366946539117328774e-02,-1.099651926621891818e-02,-9.478737561309658055e-02,-1.779612026695906457e-02
-4.157994602628924119e-02,-5.643548551102513244e-02,8.461066386915491733e-02,4.489653056315476287e-02,-9.853463997671615959e-02,-8.317134555630840975e-02,-1.468727021084834106e-01,-4.539398602169107677e-02,1.209320106541567075e-02,9.413956215758662038e-03
-1.105805532327299723e-01,-8.677712395364715892e-02,-1.241434612933701997e-01,-9.816603435299192659e-02,1.393279860475849230e-01,-7.897083439633086066e-02,-2.257654227633762445e-02,-7.363362327669775720e-02,1.431026200141642668e-01,-1.066765121128132598e-02
5.789856067892959479e-02,-3.728406797485206425e-02,-2.363910866265753197e-02,-2.678649161753250685e-02,-9.956641482191885828e-03,5.716688633164801470e-02,3.257149960766136942e-02,-8.721629028881081047e-02,1.189794623827582221e-01,-1.574536759331121583e-02
7.559905110850037580e-02,1.341385829688479248e-01,3.042901006029394284e-02,1.759779135726730059e-02,4.190015573865907283e-02,3.695657480999600675e-02,-1.149288685297449319e-01,1.083619028938805073e-01,-9.759887099399103261e-02,-2.400759024555298993e-02
6.655798225652292954e-02,1.039265342612743781e-01,-2.679921453975629697e-02,1.355844687467553100e-01,1.239363029179793296e-01,-7.335355085932478147e-02,-9.909522968640177565e-02,-3.424609339051232215e-02,4.028693370591954204e-02,1.310665843287100174e-01
-4.842267109255110613e-02,-6.166717157877939226e-02,-1.055879811657537137e-01,1.333455638727072123e-01,1.311421544851838761e-01,-1.164494680196070248e-01,-1.034582850500399553e-01,1.179036273131585932e-01,5.399018305996167166e-02,-3.792656829457048684e-02
-7.125773747547393955e-02,-3.923069672685408626e-02,9.535589023793367147e-03,1.483855507894672188e-01,1.300915209663228433e-01,8.885523249817076086e-02,4.246244744234120572e-02,1.425074463095234167e-01,-5.501490049698354312e-02,7.743143476429187322e-02
5.150450367770065263e-03,-6.041886944945845661e-02,7.960033547383399410e-02,1.266700000523329483e-01,-3.841267198367168123e-02,5.373294801199499093e-02,8.759815843349103015e-02,-1.192873238822437232e-01,1.436180999787023127e-01,-7.717827948650252123e-02
-3.037379332622772155e-02,-1.477436448490076770e-01,8.333835905734746086e-02,4.066730893745904019e-02,1.424309315297142831e-01,-1.042532460305153619e-01,3.895648580350893897e-02,-6.438542114034859210e-02,3.279267724583467825e-02,-2.372308801406952661e-02
-1.476669745210727747e-01,1.315046247533418200e-01,5.951212046915321796e-02,6.609566131300551040e-02,1.048790322467086089e-01,8.311022962350059218e-02,9.649532947056582710e-02,1.288228075867489386e-01,-1.108741662115043380e-01,5.444901119655370936e-02
-8.349859769713043056e-02,7.191857747817786972e-02,1.078600356949334926e-01,1.169643995081527665e-01,7.366346451097616210e-02,1.067719111239667507e-01,-8.126440283232339024e-04,-7.612975755457551674e-03,8.177951270673294859e-02,1.250816435609605481e-01
8.532547125753328632e-02,6.212726071206536860e-02,1.168550864793715116e-01,1.264642781443586772e-02,-4.908832095178679300e-02,-1.646184283379950597e-02,1.427478612445501338e-02,1.271249952835435126e-01,-8.774337672656395970e-03,1.996709618372968786e-02
9.969949929746571571e-02,4.024284040543490981e-02,1.317213211698362307e-01,-3.099474185902952039e-02,3.894265378467051675e-02,6.992012179766049496e-02,6.391123304804488536e-02,8.686901014973116841e-02,-4.060854586334379512e-02,-2.268419475401864394e-02
6.990340778043296899e-02,-1.380709897668480624e-01,9.791746662766998011e-03,9.808713887605752246e-02,6.732449457783060143e-02,-1.290906052093739875e-01,2.531444367378726801e-02,1.030738077813258824e-01,4.422849571307949090e-02,-5.868384821004792029e-02
-1.218130570509910193e-01,2.655827507220043238e-02,7.029283670383182359e-02,6.303951055566273109e-02,-6.321473242488742650e-02,1.036663221992512318e-01,-7.571443432087324177e-02,5.518760713573059307e-02,-1.125293293842570819e-01,7.864473908905067479e-02
-1.479769507826416142e-01,1.289897902184348466e-01,9.359868861620510017e-02,-1.246261101354234624e-02,4.528825408209438685e-02,-6.008718392478581971e-02,1.158674111637102155e-01,2.702907555716532739e-02,3.047028268130591577e-02,1.432385794482529950e-01
-1.061129874699823228e-01,3.109553881639448569e-02,1.175430416265402234e-02,3.389990442473436727e-02,-1.064920506807159606e-01,7.218612741189273097e-02,9.398399527173317836e-02,6.027478890057991201e-02,1.226425613394069025e-01,-8.047436867801147087e-02
-1.116069142163607919e-01,-2.340514934260590207e-02,-1.430250346917435189e-01,-4.937416638311363515e-02,2.896682210444195826e-02,5.107906131673908834e-02,-6.225475263549588856e-02,-1.471118887478493897e-01,1.070382000675871581e-01,-3.431222715015574964e-02
9.675421589467556038e-02,-7.859667013140454739e-02,4.100955281261864371e-02,-1.946919959543522149e-02,-8.236912277019994844e-02,8.402544947619786098e-02,-2.544664793533638059e-02,1.677463151516700446e-02,-9.855837269407521917e-02,-6.820837778277012708e-02
1.384243934482212446e-01,-3.260748923635024832e-02,-1.212621224132406500e-01,1.128454122574982510e-01,1.341737792247860994e-01,2.046727151434649117e-02,1.168943795147155129e-01,-1.371647604974113588e-01,-1.047812977844183036e-01,7.969946448294379371e-03
-4.392112858352954785e-02,-1.454161206799146899e-01,5.587146708907947401e-02,8.719790217616113503e-02,-1.102516735234087553e-01,4.452558041377674414e-03,3.618344471588119671e-02,-8.656268277773918052e-02,-2.616166347727427732e-02,3.057082673480138180e-02
4.709411025091919667e-02,-7.217782077845909250e-02,8.171205179323126622e-02,1.495442717422459655e-01,8.267141817823608907e-02,1.231688114339362372e-01,9.205972572697312950e-02,8.062209723200977618e-02,-2.998031659059613441e-02,-1.309664356908529503e-01
-1.412753065179501999e-01,-5.665179099204162294e-02,-7.943545511759515787e-02,-6.598840616072203236e-02,5.400719548474991472e-02,1.009535293624405639e-02,6.995218976124001342e-02,1.482935946103553226e-01,-1.404301237414082026e-01,-3.956047790547642662e-02
-7.280191424750311058e-02,1.594340923385609288e-02,9.258079309073763419e-02,9.909138134878009430e-03,2.412573612060214812e-02,3.725301608900333239e-04,1.206400897737097411e-01,5.685965688814853536e-03,-5.683286265910132695e-02,9.192959344820697543e-02
4.862231765403063344e-02,-3.012471140045061557e-02,4.313660372607625026e-02,2.128981959296213922e-02,7.803237233868137723e-03,9.492167673059573318e-02,-5.037098038030207725e-03,1.407226909373090196e-01,-1.284390220122434700e-01,-4.319879801156935317e-02
1.274217172140002241e-01,-1.098546563728153153e-01,-1.227881285960212843e-01,1.432230394458875178e-01,1.086733331780769529e-01,1.397400587940156036e-01,1.404923688707206131e-01,-1.315807402918853786e-01,-7.597242383855638825e-02,8.024739147795417749e-03
-1.152751200547837973e-01,2.332956849968209623e-02,-9.426749631288050546e-02,1.221026546135164648e-01,5.544372126031399395e-02,-1.353097167889385222e-01,1.142283782754180133e-01,7.277595970842248851e-02,9.860754153032433300e-02,1.265132597046208229e-01
-1.217869100527857462e-02,-9.168187854221884758e-02,1.176004488114461843e-01,-5.029644336120833725e-02,9.032991142958718411e-03,-7.940389175836827518e-02,-7.217183583534431124e-03,4.691013476081787315e-02,-7.909799031541489556e-02,-1.202963373380667861e-01
-1.424677010191014448e-01,-1.498134720908709250e-01,1.124912118248866111e-01,-9.991119429944608776e-02,9.464840451690195722e-02,-1.080109963308037435e-01,-4.175464073838557055e-02,2.953157847776330391e-02,-1.320666698350318469e-01,-1.246340705033039814e-01
-8.957498075409547900e-03,-1.305065082797895737e-01,-4.500466222819464457e-02,-1.255308819228296846e-01,-3.211487832057509373e-02,-1.496996403547725674e-01,8.787557836488490981e-03,1.201265822229749813e-01,-3.530673554278836168e-02,2.902558448316788775e-02
1.457767458437027874e-01,1.452718882419588298e-01,-9.568146261324093904e-02,-1.384742956733821806e-01,-1.481905220172604343e-01,9.119455166764667275e-02,-1.145763896083968891e-01,-1.160992439528027165e-01,2.871109496618692858e-02,1.222423227663718415e-01
4.239338438358761230e-02,1.050934105548858299e-01,-1.489938490909774871e-01,8.484566737918922130e-02,-6.851259261607013651e-02,-1.320185790246974911e-01,3.937815171559710947e-02,1.457384904594302422e-01,2.243946057740536792e-02,-5.565439729930300727e-02
-1.419675689426567466e-01,5.128540244998813780e-04,-8.554542466667172662e-02,9.543011120217378962e-02,-1.046465429644348744e-01,1.461323895263152983e-02,6.498627529173506279e-02,3.235635252302265785e-02,9.828564684801979756e-02,2.847169626292825328e-02
3.261126243178005812e-02,9.669723162084864487e-02,4.457725530889433685e-02,2.009024280471005675e-03,7.087198744483816371e-02,8.567951620086444731e-03,5.096384921434093940e-02,-7.770786324135051104e-02,-5.304612400070853051e-02,-1.366408367659799061e-01
-4.623533700871110264e-02,1.468575270378818798e-01,-1.757073102088807515e-02,-1.740366294785455903e-02,-1.300076948138291777e-01,2.390856009659944603e-02,8.711339618019209308e-02,-4.913056849742671039e-02,-2.982174745983957875e-02,3.324623737918658284e-02
3.354384687365691287e-02,1.178933733279906304e-01,4.375533338783249571e-02,8.043757028668316322e-02,-4.624226288705486632e-02,-6.618671803531957221e-02,6.839981089677221737e-02,-1.197757477239573404e-01,1.159053783243408076e-01,-1.267675389213505366e-01
1.425043196205960927e-01,5.230377576929023942e-02,7.221400226539523293e-02,8.305405092884635132e-02,9.669696634192179174e-02,9.680381840748003563e-02,3.149305672145563673e-02,-5.840813072579820187e-02,-9.598296449480518688e-02,1.242642172269734224e-01
-4.622344595315169835e-02,-4.013776749418113132e-02,-1.135372626755538350e-01,-1.468530435526038680e-02,-8.976503125065693478e-02,5.983530747277115980e-02,9.701696124415709610e-03,-7.777803582085782153e-02,-5.632950063978914290e-02,-1.498828649707285299e-01
-1.179562825092908968e-01,3.412632408565041686e-03,-2.274037168048728685e-02,-1.211108204809903666e-01,-6.040531126229031766e-02,1.002467264671351443e-01,-8.098145861166945736e-02,-1.392631763754597907e-01,6.404757856157786144e-02,-4.968081532339914397e-02
1.489003424544229903e-01,-4.631821083020766505e-02,7.612785147642708861e-02,1.462538730936856213e-01,-1.360314897372987553e-01,6.326717733517644993e-02,-1.372945971869579118e-01,1.532781334592270284e-02,1.029580824022434393e-01,-2.819160526004274581e-02
-1.438683751521228626e-01,6.165717434106704475e-02,-9.364369436298816685e-02,-4.945040588496263378e-03,6.110705340819888587e-02,-8.466111112411550677e-03,7.105136542080109363e-02,-4.937630730925963995e-02,-5.828506824682583298e-02,1.498446635087688217e-01
-3.246935765835458343e-02,3.004430975092359235e-02,-1.193746599942685643e-01,1.379818983477814343e-01,3.193297676930870188e-02,-1.282921126065811324e-01,-5.224445446842129748e-02,-1.312218484929918716e-01,3.625528495879679070e-02,-8.188251301358756562e-02
-1.227043695488362618e-01,2.128508130344250460e-02,-4.102227022051457839e-03,-1.311047751084082336e-02,-1.214164883002167850e-01,1.298154713651340775e-01,-6.461762466543120864e-02,1.086623199109426896e-01,-6.204515001094153270e-02,1.413068438454366527e-01
-1.456124774475175965e-02,1.117731723473008032e-01,-6.192763219089592042e-02,-1.204614657771899133e-01,-1.078150427180953747e-01,6.619268772892639152e-02,1.267858752651462584e-01,-1.003087724694902982e-01,-2.278532817987716230e-02,-1.875225988288789503e-02
1.360159278815272488e-01,-1.244738159344755124e-01,-2.075121063578264091e-02,1.131831608707383474e-01,5.102382697957139057e-02,1.198117585903740734e-02,-4.213832473185893934e-02,1.373561445898243971e-01,5.454796402738901206e-02,-4.961907264494754000e-02
-1.196884667773042005e-01,-3.757177559874898265e-02,7.848717176891292779e-02,-8.552516641264616692e-02,1.278742219801735358e-01,-1.241549185188867838e-01,2.316060538491632181e-02,-9.057733455064198580e-02,1.067855280380969607e-01,-1.860085112620452064e-02
-1.823692134535404019e-02,1.188462989713395812e-02,-8.335465329997025774e-02,-9.948605098078310005e-02,-5.168602954159025320e-02,1.473719592055408867e-01,-7.427055303688906429e-02,-1.053803297553604357e-01,7.462559618874697875e-02,1.050093313830549602e-02
1.767352915082481823e-02,-7.913312854517250139e-02,7.325121494059128047e-02,-1.554546152165020567e-02,1.390383143271294031e-01,-6.778300983146091918e-02,-5.984930666090576556e-02,5.959937896254277612e-02,-2.110636032199741940e-03,-7.171545950294729022e-02
-9.630585516838874316e-03,5.274898955324081040e-02,-1.276576870656747353e-01,4.279648022083981651e-02,-1.281509432714275087e-01,1.142262574718637957e-01,1.332353651654483440e-01,-4.969540168734021268e-02,-1.122124369202304739e-01,-5.814691229832601171e-02
2.222331850356631944e-02,9.044062218053552926e-02,7.643566900848561274e-02,-4.321821263373394617e-02,-1.100118497393848260e-01,6.211712974423394540e-02,3.168301719649954662e-02,-1.228705353189380317e-01,1.306729100933490262e-02,3.873370066431863767e-02
-2.606019772457446315e-03,-7.211526074820834298e-02,-4.892554983544028513e-02,-1.742053131066362281e-02,7.550456442471273344e-02,1.199894974790618185e-01,-2.412584325745170677e-02,-7.316327986382209492e-03,3.853959335210765946e-03,1.438830200406579218e-01
-1.105274927232728771e-01,1.327980448737186292e-01,6.942881585300264558e-03,-2.571458780111580966e-02,-1.274795822682919799e-01,-1.061627660362751691e-02,-3.188215924110433808e-02,-1.054379114538709084e-01,-7.792620885509403406e-02,-6.164002793126463486e-02
-4.994518221217357501e-02,1.107202940849513484e-01,-6.257254088606038767e-02,1.230192709549971786e-01,1.558757209106526043e-02,1.116642269474370230e-01,3.498979749175129550e-02,1.445091062362957313e-01,4.475422195811415427e-02,-1.525058708408913444e-02
1.846851725243520148e-02,1.333324716961079293e-01,-3.711755235743451065e-02,3.975091085612775244e-02,-1.862911660450070062e-02,1.235561734051014160e-01,9.002184780522312635e-02,-1.415099864857678746e-01,1.084881959199146539e-02,-1.087504048431568449e-01
-2.485458352501696000e-02,-1.283494932261720067e-01,-4.912214695811663312e-02,-1.319978132833270756e-01,1.453815292988015762e-01,-8.839359975336805175e-02,9.090803087696358586e-02,1.110694892375548581e-01,7.761480572070419970e-02,-4.338796734119078347e-02
1.403186188296624837e-01,9.309552650088948056e-02,1.984747770242453746e-02,-4.005023093298118453e-02,-1.764433433167872378e-02,4.723679436643149487e-02,3.580519892338637766e-02,3.256830073393671143e-02,4.348198266787098309e-02,-1.223076180081331260e-01
-1.462487808833002889e-01,7.624021846104328537e-02,1.073663273214800484e-02,-2.319954371884630495e-02,1.102770206891837412e-01,-7.315538746454604280e-02,3.896896518631098871e-02,1.347184726139536159e-01,-6.359019558836616348e-02,1.469610444564864171e-01
7.954485644261341526e-02,-5.220203900909627104e-02,-1.463682143889056819e-01,4.189000571080886415e-02,1.336776835640263172e-03,1.416565058595478932e-01,1.383044556336867348e-01,3.744034721185193759e-02,7.247290031065500848e-02,1.050261887900766355e-02
1.059187298487639095e-01,-3.509614520079179512e-02,5.484569634308963937e-02,-4.221588344775076274e-02,-1.391782563556918373e-01,-9.318880687369866800e-02,-1.297155306405125275e-01,7.499287752967875864e-02,5.121584785926092120e-02,-1.189212092205650939e-01
-1.105828831348762420e-01,2.935416289424855329e-02,8.774907787972868745e-02,-5.487611146035298315e-04,1.310972447055605838e-01,-6.990147210931198229e-02,-7.291222247754229613e-02,-1.483061153376853680e-01,4.774465756043747011e-02,-5.484832071192198566e-02
-9.012395083236460214e-02,-9.555501330725449383e-02,-9.731613376826257766e-02,-1.107276467708394885e-01,1.224226038833318986e-01,8.265878789930170001e-02,7.096401108304939420e-02,6.170575574015518816e-02,1.136086342643596592e-01,1.803266498447236854e-02
7.284203376766834603e-02,-1.162619535408368210e-01,6.085842410557773530e-02,1.407843865091502333e-01,1.888293150935133058e-02,-7.479484202330539955e-02,8.609219897702510838e-02,6.521919264329448240e-02,-1.177461933039729569e-01,1.417345246948459037e-01
7.363060461763967779e-02,-4.498588692699312386e-02,-1.192828634287518563e-01,-1.960613201331673494e-04,-9.905294250092526454e-02,2.210326870695164536e-02,1.241896843178041110e-01,6.372595710954562231e-02,-3.219248965973268983e-02,-1.171457247630613430e-01
2.570860318944229173e-02,1.229770555905224938e-01,1.050327853357636287e-01,-5.849274913405448639e-02,1.079415208586493036e-01,-9.473765372719225586e-02,-8.488353497706077611e-02,-2.092543115454498226e-02,-1.274274595737683313e-01,3.718481854471322734e-03
-6.219463081244375191e-02,-1.415135854744813404e-01,4.212794833003447037e-02,1.357725116680275901e-01,-8.820999738407953039e-02,4.709439763063955064e-02,-9.003998939969207194e-02,-8.926788470409832699e-02,1.209392078485026778e-01,-8.744314558297805462e-02
-8.763936818801387751e-03,-4.146678930203516467e-02,1.163548463686099599e-01,-9.700512401431302112e-02,-1.407959895350510693e-02,1.371882015159019141e-01,7.634887692098413225e-02,-8.408507521566076226e-02,3.225742283971647084e-02,-4.537030369056992141e-02
-4.469909603024395384e-02,-5.297594432064817171e-02,-6.991689573934356527e-02,1.788569506437234780e-02,-3.329558328472495554e-02,1.434370097469195304e-02,4.894122553294744105e-02,4.771838984128312644e-02,2.954997902553269107e-02,1.345149288252939501e-01
-3.734682514321094327e-02,6.957852463078162408e-02,1.326654333760321769e-01,1.339725190592636894e-01,-4.984506208985409192e-02,7.009300400715337553e-02,4.831120229840418778e-03,1.806470262492435030e-02,-7.985323867444578394e-02,1.315947812715353160e-01
7.643183820332363765e-02,-1.446182531968656371e-01,-1.312017074582663700e-02,1.080583978023314240e-01,-7.876778571796998196e-02,6.199126755640133046e-02,1.260150041320924064e-01,-2.682648514435330422e-02,-2.253134560546379839e-02,-1.424381884846633584e-01
1.215790655969476719e-01,-1.332150758758546549e-01,-1.426080650910876990e-04,7.747046950213481997e-02,-8.601679401025863481e-02,-3.637897592881900177e-02,-1.471010225954961503e-01,-4.932266920162409196e-02,1.163039265907690190e-01,-2.919597491656165944e-02
-2.471068799889392098e-02,3.820192093583382742e-02,-1.338669281215705831e-01,3.745304237238128442e-02,1.337350169787005771e-01,-1.270908469505494798e-01,5.321883518610748265e-02,-1.424464862181891722e-01,-1.906950438577137419e-02,1.827714131644600504e-02
4.602580177080303758e-02,-4.572024598311653920e-02,-5.325941226183485144e-02,-7.356765012869521947e-02,-1.083770714283803782e-01,1.071707242204556765e-01,1.287255918437933688e-01,-4.608658242579898034e-02,1.146693417182132746e-01,3.822821540814430596e-02
8.007570625678089860e-02,1.339506558791423163e-01,4.767039147933876952e-02,3.231820842490376600e-02,6.426461342374353847e-02,-9.649797973564122611e-02,-1.217093097985515460e-01,-9.702571251074973424e-02,-9.350392197019932738e-02,-5.981506836106431635e-03
-4.910541632131810996e-02,-7.638694649219217314e-02,-1.110761588053500309e-01,-5.661804714064329336e-02,2.506788892836364635e-02,-3.638712249727708847e-02,3.547249404360816594e-02,-2.040855916570749606e-02,-1.287304433603817522e-01,1.293259460991874332e-01
1.926197181060124164e-02,6.053938477708431520e-02,-1.328207015557417991e-01,1.287284952588842735e-01,-3.606748787921769395e-02,1.164804554767157330e-01,-1.019596340941082979e-01,9.532645233943221053e-02,-1.061254594658513628e-01,-8.818623342520795494e-02
9.687349107515921820e-02,-1.495559278411404125e-02,-9.109039509307657878e-02,-1.038783418625435495e-01,-2.286466808807460782e-02,1.291166188515871227e-01,-3.359788263666943497e-02,7.080494155074001927e-03,-3.750826878858527780e-02,7.167422870861445139e-03
-2.333496751639596578e-02,1.419043562099891742e-01,1.150922598061768498e-01,6.314230527080799682e-04,3.608743152232318785e-02,-3.886097373889213502e-02,1.317106705096889596e-01,-1.087597921927623279e-01,3.400643850879803143e-02,4.746089547136428388e-03
3.456860296485064765e-03,-2.426832575257739655e-02,2.886874213323722960e-02,-3.541282497494073478e-02,1.032249739768751617e-01,4.666454086672600088e-02,2.615139474425384747e-02,3.274637319237599931e-02,4.694024693528559000e-03,-1.195211610981526396e-01
3.573946284622014913e-03,-8.299469182847109272e-02,8.782178174476135135e-02,1.858564427959191745e-02,4.623897182119568461e-02,-5.945118662727233438e-03,-6.376073109322956400e-02,-9.065557579168447011e-02,8.567272256953528675e-04,1.215609463255929723e-01
6.060230781216502383e-02,-6.108301867589048528e-02,1.426579773137946761e-01,-3.154754653006630605e-03,8.474571725135615630e-02,1.476993975660143010e-02,-6.686309109800499251e-02,8.986898825593531148e-03,1.426528747802075225e-01,-4.127658515768482805e-02
-1.091842410183336137e-01,1.470103714609927170e-03,2.361268238726363378e-02,-3.641993924966405172e-02,-1.140390333454261163e-01,-1.270517308347814955e-01,6.771433024738254813e-02,-5.121251157245503005e-02,-9.510725785539789201e-02,2.051088907139475559e-02
1.141130960385254578e-01,1.155192063377793732e-01,2.343650145810571850e-02,-8.405146527326158579e-02,1.114668266246063300e-02,1.496612122551525259e-01,1.427955103608352372e-01,-9.709110180220213715e-02,-3.136752731433818664e-02,3.704520337633862570e-02
5.896381206742268288e-02,-7.838806155604616244e-03,-1.157096638591400550e-01,-1.365862326993917963e-01,-1.447871418588021486e-01,1.052005750791353000e-01,1.405780380492705761e-01,-1.124948537605174326e-01,7.678140500895797027e-02,8.221802904202379914e-03
-9.432496039089521833e-03,5.099755470466782459e-02,-1.204389695771592717e-01,-7.273238533101425429e-02,9.805355675220445155e-02,7.786503269289740681e-02,-1.205799066705898759e-01,-1.137858098561292108e-01,-6.575778027556045124e-04,-1.168383867144731636e-02
-1.428357000524543841e-03,1.150163151561021946e-01,5.164953937345095891e-02,-5.786524590712795180e-02,-1.339428234068027468e-01,-9.776709407259284723e-02,-6.924830396781686548e-02,-3.775218102685885813e-02,-3.987628205984111718e-03,-1.223666236149033998e-01
1.077155911052164183e-01,-1.203289615414406821e-01,-1.016002425785917096e-01,4.259045604857403244e-03,-1.170698929918017606e-01,2.432076358218893120e-02,-1.731673232006061824e-02,-7.628937450010497834e-02,-1.012272687128019932e-01,1.329482563389941530e-02
-1.060088345049136072e-01,5.619101919711008697e-02,-1.139147047049749728e-01,1.501564786812986663e-02,8.310301359453381442e-02,5.690991830811126251e-02,1.252027406427158873e-01,-5.386499996154786585e-03,1.250221660304484672e-02,-7.159336581229448770e-02
7.544941737395710613e-02,1.063948782952504890e-01,9.826215500746676712e-02,5.377917803085657811e-02,5.803278575811898765e-02,1.223815701854823190e-01,-7.932277310044229257e-02,7.816678295367857077e-02,4.568210260342639439e-02,1.344054238125889922e-01
1.166804347206287784e-02,2.491963122513274342e-02,1.249852136043243800e-01,8.466263456161318701e-02,5.860033160600919278e-02,5.105669657928382787e-02,-4.412837452442536224e-02,1.335895598849206334e-01,9.509043099339858918e-02,6.898954825229325349e-02
8.567129362427639006e-02,-1.269235239111027036e-01,1.121254638199776499e-01,-2.824958247327016836e-02,5.479819991797929557e-02,1.466527260409043742e-01,-1.318763069781080932e-01,3.645878559172666122e-02,-7.654641325525028683e-02,1.228382776514196084e-01
-6.968803370691899202e-02,1.284171098979262904e-01,-5.195045095784110722e-02,-2.744774035615599184e-03,9.939374683682197786e-02,9.142395611249354292e-03,-5.455559501424506186e-02,-1.557215637496148219e-02,7.335284379457460147e-02,1.169004910076920367e-01
4.730425075760796849e-03,-1.014472239155583544e-01,-6.461895404403833476e-02,3.838552451861707016e-02,-5.313174027753492235e-02,-9.854012513701737586e-02,-5.754100762025908533e-02,3.841818805368210632e-02,3.714307520007481545e-03,1.413886163017935571e-03
4.059436716992648186e-02,-2.067909379945603865e-02,-1.959453243182751603e-02,5.193070708035574246e-02,-9.263846231516086049e-02,1.281688388051326621e-01,-2.021372703673254834e-02,-1.246947211383120785e-01,-1.112419723286879741e-01,-1.388315538299394747e-01
-8.428166294139602388e-02,-6.423462663098673808e-02,3.190221223105638160e-03,4.663433075351622326e-02,1.254624030097714893e-01,-6.953859607482178185e-02,4.290897452461972517e-03,-6.505576144905134139e-02,-5.686759237986570292e-02,2.371553625376002228e-02
-1.243636221746305393e-02,-1.475083672515169753e-01,-1.274013987625949029e-01,1.139760076796635657e-01,3.606995051817901698e-02,-8.131222516614913798e-02,-9.323048590360216714e-02,6.793430926931628977e-02,9.080398391857993912e-02,2.008461663236082995e-02
3.032037087969452482e-02,1.424421893969883557e-01,-7.583736938245230763e-02,9.246182887273599049e-02,1.482109127253584402e-01,1.386231088462575312e-01,1.292407315056798012e-01,-8.714428569136851987e-02,2.217323959206116135e-02,-7.842604331363346726e-02
4.900889829849780499e-02,-2.319307194003683570e-02,1.007649524898499849e-01,1.446025696009582140e-01,-1.190195645065099117e-01,1.160120968948380182e-01,3.652340018798022614e-02,7.839585955287090013e-02,1.414441458316607336e-01,-8.170527578149210102e-02
4.756227823994091386e-02,-1.139913096684481986e-01,-5.731036975547922074e-02,1.448356332339975905e-01,-3.717150129836019334e-02,2.025141214859713101e-02,-8.928119330748607307e-03,-6.335554043420343895e-03,1.264551700302516679e-01,-1.344342048439025328e-01
3.819782243476979589e-02,1.088584109882293760e-01,2.164498633859462950e-02,-9.342037625484475583e-02,-2.181666046054825392e-02,-1.296867438670402939e-01,1.143582552606435543e-01,5.748222234654751239e-02,-5.444256655524629118e-02,1.017779926523597889e-01
-1.237315194775431143e-01,-1.345090592394696249e-01,-1.372237163868504084e-01,1.839492293099756481e-02,8.472655301762324620e-02,-1.125988983273389227e-01,-2.353565204966528990e-02,7.113891361680388381e-02,7.781261107128226162e-02,-4.694455639258511559e-02
8.430210182004152508e-02,3.784539475620249394e-02,1.163989742151203821e-01,-4.363784547368883271e-02,-1.063234816143879269e-01,-8.286624093721295381e-02,1.196490372433462179e-01,-9.297036525098943682e-02,-1.044834014920848486e-01,-8.047227351959507224e-03
3.884720311566769446e-02,7.103600495611009369e-02,-1.412519877523391865e-01,1.568186813849886674e-02,-4.649721207150131486e-02,-1.244293204031171746e-01,-1.334795118997437746e-01,7.908458305779622610e-02,-8.741063916299449121e-02,8.118298613585389623e-02
-3.891575802045688093e-03,-8.149814587029304003e-02,-7.967072529647525880e-02,-8.053155582208634811e-02,1.466408159248581422e-01,1.474353654487676468e-01,-1.354989179435159841e-01,-4.367132161342038299e-02,-3.150118368906106026e-02,3.875677813228803337e-02
1.151616568652203687e-01,1.257048501690186393e-01,8.368501205255218789e-02,-9.181063691145172068e-02,1.139925647400282516e-01,-9.948230033774302372e-02,6.283155171069010336e-02,9.121654342155519068e-02,-2.517288513784179949e-02,1.407856807155126455e-01
1.469870444626560635e-01,-1.282151646806114764e-01,1.130458363037254166e-01,-4.633036405557997006e-02,5.030458426329145749e-02,7.057198686146110012e-02,9.619830567506826302e-02,1.183114551073174703e-01,-1.202938280543234956e-01,7.772452372271315690e-02
-7.693991382109270638e-02,-4.611003789827423927e-02,9.315864019870062629e-02,5.672339838481027519e-02,8.769902098972121030e-02,8.640406751344706371e-02,-6.981538112806191798e-02,5.137160860306991261e-02,-6.954139804196469987e-02,1.497569484951020991e-01
3.020643820028945381e-02,-9.010365788104662821e-02,-1.395097319660193458e-01,2.322715417848655872e-02,6.250511292073396286e-02,4.403512925878991235e-02,-1.288034382713982851e-01,7.768618073095839849e-03,2.626738787858717838e-02,-7.652295227265297484e-02
-9.349442423016937620e-02,-1.458500590465344748e-03,1.387615727730365511e-01,-8.871088950073641177e-02,-1.252888330401716599e-01,-3.324850759162858993e-02,-2.598996696378273741e-02,-1.841686764010827537e-02,-4.759359261528837981e-02,-4.364566419874062186e-02
-8.893276951596643110e-02,5.224216106486040401e-02,1.393032937444219355e-01,-4.742859378487691846e-02,4.011898433358526694e-02,1.188834405721778120e-02,-1.630412160822022893e-02,3.262263186063790732e-03,8.225963367903885159e-02,-1.139537558126384742e-01
-6.342493908023930094e-02,-4.326808329017495236e-03,-2.416012102958281504e-02,-1.347713714765721715e-01,-6.630697160570699078e-02,1.838662649032840601e-02,-5.946599214028110147e-02,-1.245534557172756074e-02,-4.734274020601157706e-02,4.464473909092567250e-02
1.209438485184766154e-02,2.692717606379463335e-02,-1.834397510030852385e-02,-6.362163483584884482e-02,-1.239008971852853386e-01,-5.030253268006465439e-02,-1.039406278661339500e-02,-7.844169758893899946e-02,1.241025497115460230e-01,-1.141662860751121999e-02
8.958635829081570967e-02,-6.121919433650932496e-02,9.845004111731411878e-02,-3.305178618459408968e-02,-1.336969693349753241e-01,2.292208634263079303e-02,1.097526963937767164e-02,8.677967066783806582e-02,8.381971477761188116e-02,1.199097510850201942e-01
2.145560526906006849e-02,-4.895613776529671168e-02,-2.855702647608349132e-02,8.126073914832152023e-02,-9.133542890776213952e-02,1.395405721762504048e-01,-8.097805566115708065e-02,-5.184454867469705242e-02,-2.014459749400540622e-02,-1.015953260703559569e-01
-1.916615030610357984e-03,1.367741997841116774e-01,-7.369583373186962272e-02,6.128949533264882454e-02,9.957762186082325107e-03,-3.288963783570615640e-02,-1.583751767766539142e-03,9.863010752072065568e-02,5.444108374912765003e-02,-7.772337186388519892e-02
-6.091576186203397081e-02,-1.489010045047601261e-01,5.494820579911169345e-02,-2.572752307397138671e-02,-4.527763162569553579e-02,-7.867484813817667011e-02,-1.294483713315095486e-01,1.463274314355186012e-01,-1.383132268662223552e-01,4.465744295895771043e-02
8.227804066288080254e-02,-4.104203888793991895e-02,2.270472485220279002e-02,3.019256787582558221e-02,-7.706715596918191358e-02,7.781091809613349675e-02,2.199605360671763599e-02,8.274994644131769550e-02,-3.768936451037326052e-02,-3.004087923884442290e-02
1.247913946717967570e-01,1.223591008744781272e-01,5.392428160596879350e-02,3.790189745643318675e-02,4.307034901670347971e-02,-3.597895347118496012e-02,3.807039615283644429e-02,-1.180059206926226678e-01,-9.857003136938591314e-02,-1.126911894699905714e-01
7.245263589952280481e-02,-9.675309607493309816e-02,-1.477924592410474469e-01,-3.276361356661691704e-02,1.287226220989632075e-01,2.053467399599834264e-02,1.664261103073250148e-02,3.126156908235186438e-02,9.484844927065996800e-02,-4.043285731182649778e-03
1.050475816257295525e-01,-3.507549820898676896e-02,4.325727484189342831e-02,-9.911406916425416491e-02,5.822691122769083072e-02,-1.369893950340171640e-01,-2.089502854336477977e-02,-3.411476684521821956e-02,-6.495654478956502942e-03,6.200693396784362488e-03
-5.489744641551870530e-02,-4.202957839460097489e-02,1.259281043073538775e-01,-3.432101738705414795e-02,-9.452838854994065343e-02,5.167537726277635080e-02,-1.433387635770389523e-01,-9.438692410243651465e-02,-1.130310911694595299e-01,6.371023182686677555e-02
-6.360804568474259790e-02,9.336567725230124348e-02,-2.927496636212371939e-02,6.695092225097984406e-02,-7.284540293679372946e-02,6.693889782580880743e-02,-5.785303583938590510e-02,-8.275755567061028606e-02,5.445104446273724141e-02,-2.847130255984531289e-02
1.056426226011135394e-01,3.542009970172554922e-02,-6.530588680352161779e-02,3.733095224647969834e-02,-7.321716700020181046e-02,-4.845189388623452609e-02,-1.867762426468796977e-02,-1.369044783624320805e-02,-4.695311812504061877e-02,-1.007626967773483234e-01
-6.451207259085163515e-02,-8.582005363034936329e-02,-1.317959417946175660e-01,1.212947198933922721e-01,-1.332514712865178474e-01,-1.209425499748014721e-01,-3.510872902379169602e-05,7.232648949857922727e-03,-1.474535855728801026e-01,2.821380429040803994e-02
8.151581748492750523e-02,1.390077695650035194e-01,-9.576316323606837155e-03,7.532555405169893969e-03,-3.542167429058973305e-02,-5.357220782429761297e-02,1.006728557866517770e-01,-7.057916497954376533e-02,-6.056853663982778024e-02,8.951199789112737615e-02
-1.372614837850044678e-02,-5.699892231553367605e-02,-7.422363817923183227e-02,5.070291569825308153e-02,-1.432715636239935142e-01,9.567923954226056904e-02,9.661885173788997694e-02,1.154415188599012543e-01,3.880251138327184268e-03,-8.001018089175941650e-02
3.945432935580986400e-02,-1.298293741529443768e-02,-9.259171093596560431e-02,5.266544370983594625e-02,-3.545316542774261392e-02,-4.327667818421587764e-03,-1.336880597708130780e-01,4.859583120828334102e-02,1.417347384612641370e-01,-7.743757429551119398e-02
-6.015893256605323036e-02,-1.082339165931993641e-01,1.307656222642128163e-01,2.295154112368411048e-02,-5.644988639649529960e-02,-1.457346521152596552e-01,-1.340515042338669971e-01,-1.096725076074956673e-01,-6.113187917002371741e-02,5.237819401980933764e-02
-3.491481274496194276e-02,1.362525482124223031e-01,-1.231415461700002822e-02,-5.268230047164516872e-02,-6.991017994615324194e-02,-9.026576964652249790e-02,1.895864798226704062e-02,-2.590538548460757928e-02,8.504879023494132939e-02,-7.834224161932051844e-03
3.618568675864039519e-02,-8.813252875633642569e-03,-1.260553620486143944e-01,-7.248108341743754457e-02,-2.051042958079976608e-02,-8.671338969997738344e-02,1.140673901501339793e-01,1.493646356924834551e-01,1.180091358407641955e-01,-7.121445320526371969e-02
-2.111672248694368426e-02,6.769387038958957215e-02,-1.347819629464304669e-01,-9.151407998973930258e-02,5.528292097074374856e-02,-1.437167976156015214e-01,5.809979254984859454e-02,-6.932355781865121025e-02,1.295669814809332909e-01,8.327025503478974189e-02
-1.152249795106008445e-02,1.277261058912073366e-01,-5.612938091209807023e-02,5.808097172864845614e-02,1.399410040333403382e-01,7.734202767332498674e-02,-1.556915830903635167e-02,-2.880757959195803797e-02,-4.233371765235802164e-02,-1.238971830997512846e-01
3.724978568192544026e-02,1.101357367546268173e-01,3.464098400164628000e-02,-1.452458219646216575e-01,5.121580484218499207e-02,6.277019855889798272e-04,-6.726234109063063127e-02,-5.562811949708894310e-02,-1.298905620457438681e-01,-3.980633149381081204e-02
1.737610434314701413e-02,-1.587896412793579626e-02,4.272668323068243290e-02,-1.623887062346768273e-02,-1.784421644353259562e-02,-9.263065303516003490e-02,1.320144031390083073e-02,-6.384190432527739323e-02,1.632486430583726666e-02,1.135386930060187372e-01
-1.307847286822125810e-01,1.097664910749619749e-01,8.803787266786627930e-02,-1.490174408514590154e-01,3.496634233383347223e-02,1.406710194096096600e-01,1.206249274385394477e-01,4.247292285310350080e-02,6.151027474408765627e-03,-7.170259413634472168e-03
4.542543324896400336e-02,3.532286164790177097e-04,4.422563027167930594e-02,1.400959813026990963e-01,-3.715088580829542519e-02,5.800474497602930990e-02,1.329468162011613608e-01,-2.002440672723174164e-02,1.297303947199214547e-01,1.185777422219979893e-01
-8.891241406580145668e-02,1.974281626656756994e-02,3.100901232612610081e-02,1.071021577726857521e-01,1.072762142520833628e-01,2.627197892215799024e-02,1.341242755228323202e-01,1.127009154012356962e-01,-8.018791885938002240e-02,6.107646041567646455e-02
-8.328706983219605342e-02,6.615147280485128567e-02,1.245626704718832689e-01,1.903340931978497741e-03,-8.270659309788855329e-02,1.306614127035361228e-01,6.629302445807438993e-02,1.477407777762603514e-01,-1.035420268747736378e-01,-5.284525462951618346e-02
8.628048011533981376e-02,-1.190814360708308817e-01,9.710225325672930397e-02,-7.808947425929328723e-02,-5.913300583440542213e-02,-9.766879950041165714e-02,-7.945653390924685422e-02,1.419702730251498624e-02,3.461362026767175748e-02,5.182751279971808955e-02
-9.694522716581020771e-02,-5.281153127433117767e-02,-1.217748680532506483e-01,-1.730849867471379033e-03,-2.701294474127488576e-02,-1.338304938439249803e-02,-1.186200807138396707e-01,6.792353469893208651e-02,7.300161244578701192e-02,-1.095121291970769795e-01
3.612223601035902121e-02,7.464292640508179977e-02,-1.019923370993142675e-01,-1.943232710463643764e-02,3.999797323744547217e-02,-6.341852307146286782e-02,3.682994994059518579e-02,1.263537364084558468e-01,1.421883866324050449e-01,-1.072081639072663267e-01
-2.940066243488440034e-02,-2.051185801311553036e-02,-3.080973937442665900e-04,-1.243140888603331135e-01,1.445154013276730709e-01,-1.112950283748169594e-01,8.834992180742107237e-02,-1.252220749821391643e-01,1.447213703655600148e-01,-1.366889058702556448e-01
-8.262694488102231838e-02,1.173341062122552902e-01,-2.499764168710141843e-02,-1.495144710053056269e-01,7.648029606578354844e-02,1.412948164306621068e-02,-7.225204621910198688e-02,-4.560098444434430853e-02,-8.049656781256013527e-02,1.177863062108048531e-01
-1.030444834543506327e-02,5.253871698549822389e-03,-1.214588367466776370e-01,-6.063779103909051893e-02,7.858382840444647077e-02,4.217974660696760525e-02,-1.240246978153175111e-01,-1.100970926402211059e-01,-5.601353858356862558e-02,-2.324407107922016325e-02
3.388908744418300811e-02,9.923936069902572488e-02,-1.155929706127619000e-01,5.224421395420553171e-02,5.052122809683295968e-02,9.007747442866259613e-02,6.865340463809926908e-02,5.512379342566034457e-02,2.861605576465647838e-02,8.886923729756276980e-02
-1.060869192066019873e-01,1.231127865883005212e-01,4.833339485512794242e-02,-8.644534534536230108e-04,-2.245706149596793377e-02,-2.394900776460096026e-02,2.531960000867908289e-02,-8.252838756624832073e-02,1.334595620652916648e-01,1.476321253177111659e-01
5.190231948049708888e-02,1.194805735212899067e-01,-8.472573212007462884e-02,-1.392652693873458747e-01,1.155201740182944248e-01,7.292575141367127478e-02,2.462748013183074791e-02,8.475142753812858754e-02,-1.254308170857717231e-01,-1.321168617216902652e-01
1.181207564130674903e-01,1.360768432535561512e-01,-6.611904688155134657e-02,1.054774797813507192e-01,1.177003406972043642e-02,1.010084701986522504e-01,-1.168382508007435455e-01,-6.908344874432537086e-03,-1.175586260570803121e-01,-7.873407639855369011e-02
1.460967591934651810e-01,1.330208545688555677e-01,1.310314232335083318e-01,1.189045871301122326e-01,2.287553491417024243e-02,2.190948999648972828e-02,1.233110068981671248e-01,1.259199085094451498e-01,-1.000962857882458090e-01,-1.998810861251515414e-02
-9.910229205496592919e-02,4.367161577900488534e-02,1.261478438145088032e-01,1.436672507533001408e-01,-6.700830454895091715e-02,4.889504221495130643e-02,-1.012064866273510305e-01,1.026838854450465022e-01,2.662830778749000760e-02,-5.369691099830209424e-03
-4.028575400263186002e-02,-3.335590047114597723e-02,2.403368684806900246e-02,7.999390481709886536e-02,1.282601663363685252e-01,-8.134241858921570367e-02,1.028134767070890965e-01,6.460932367851995872e-02,4.055391628943000315e-03,-8.506218104744805997e-03
7.540455778451249369e-03,-1.855356443815056600e-02,-5.061381666755108977e-02,-1.453935098407389825e-01,1.356281139713186035e-01,-4.751240663299229061e-02,3.523796677086549201e-02,-5.780160218540775219e-03,4.688717433431804915e-02,1.192505067200077817e-01
-3.475996222299947147e-02,8.831474902490701884e-02,-1.264454141286597277e-02,-1.001913890629235748e-02,7.544386221773857759e-02,1.446498277359856421e-01,-1.082286123430043490e-01,-4.657232508768305301e-02,9.521758472317595756e-02,-6.620186680336133389e-02
5.859818369718294839e-02,1.341954178070662584e-01,6.825704499140652914e-02,8.561246726570009846e-02,-1.233396140056054469e-01,-2.668018485633721903e-03,9.859788755310794350e-03,-2.306128243997573879e-02,5.065140114179886299e-02,-1.236418890866460146e-01
-1.007739927860336615e-01,8.600027815907310136e-02,-6.720690404983079014e-02,-5.553569494264430639e-02,5.696267855820116854e-02,1.409802968075838103e-01,1.460832588149748867e-01,1.250996740175569499e-02,7.596091958517803278e-02,-3.463474601090263394e-02
-9.621064781655691567e-02,-6.377837714070382080e-02,-1.415850436022400571e-02,8.151761037677660027e-02,7.095225345286204632e-02,2.088519263560359440e-02,2.804988136008251809e-02,-1.372465987194270709e-01,4.976218109399496714e-02,1.480707488825341589e-01
-1.463231342693921411e-02,-1.296391268397202035e-01,-3.097032251948547699e-02,-3.117794937074105932e-02,1.116693587278572430e-01,-8.259682958151950971e-02,-1.108045716050028162e-01,-1.030546624530266631e-01,-1.248496496295318225e-01,-9.828938834472167319e-02
7.935236626374200797e-02,-7.367836772714213278e-02,-6.518523077385743325e-02,-1.156697108309119731e-01,-9.551475472981379999e-03,-1.139629747801482740e-01,-5.210053305325353101e-02,9.034372251055952652e-02,-1.216973295688740242e-01,1.010783464289023714e-01
-4.304321509869132867e-02,1.061918126705437004e-01,1.251395416307646558e-01,7.747656660801632844e-02,1.050053417210808637e-01,-4.584788810149420524e-02,3.402343822278386387e-03,6.265606855280089760e-02,-1.337415004423293252e-01,-9.682398648576465150e-02
8.913693336506151033e-02,-1.899118243206440737e-02,-1.081369110510312093e-01,-1.421699435294436487e-01,-7.154564419766824834e-02,-1.012871960876084304e-01,-6.631134151827934586e-02,6.439697044164849338e-02,1.062405553806319014e-01,1.283402442748402816e-01
-5.692496724053011659e-02,-3.352873669999625883e-02,4.654146710309117752e-02,1.307456553483157813e-02,-1.364393312079504039e-01,-1.343470368518789038e-01,7.629573798980573973e-02,5.901263509232645976e-03,1.472103711222713662e-02,-1.489276409950897329e-01
1.500576936371877945e-02,8.902198285500001473e-02,1.013423282386039792e-01,6.470607743966608205e-02,-1.005553036068967676e-01,-5.841034418526760974e-02,-1.325156466566778657e-01,5.963288792427598461e-02,-4.385511290324631273e-02,1.538827436883360988e-02
-7.501399983059948984e-02,-1.010888781096199590e-01,8.863436089371512505e-02,6.337737933674159052e-02,-5.893603093281921113e-02,-1.309668762122279673e-01,8.354129405860949431e-02,-5.630604918745060750e-02,8.918714455662601903e-02,-3.267607647425646578e-02
1.405002131426980327e-01,-7.580404907692518679e-02,1.793460029058807637e-02,3.792020684524360918e-03,-5.337396631434750127e-02,-2.617909020161898748e-02,-1.371897115992604110e-02,6.205092606700135516e-02,4.761185834825154561e-03,6.680894253833297158e-02
-1.273146699788317016e-01,-1.168365191815463056e-01,7.732905608854823143e-02,1.230115863371080975e-01,-6.439905883552131394e-02,1.353988098278818553e-01,1.425225120917076593e-01,1.439591935841828263e-01,-2.349519673240840767e-02,8.892009006578929786e-02
9.630195510157169014e-02,8.528393755352586814e-02,-1.394296536430219835e-01,7.819802719434748584e-03,1.187334732762761746e-01,-1.359973971662845338e-01,-6.514283898290877672e-02,5.121245402154100956e-02,1.522315590995063084e-02,-1.445657972821627613e-01
1.417156082140757223e-01,-1.345548332405855640e-01,-3.987649202973313212e-02,1.420063716751649718e-01,1.133429049096774388e-01,-7.357910306215915963e-02,-1.258198620870748519e-02,-1.287422334433000470e-01,6.528309213505234521e-02,-9.965828460745451700e-03
-6.553585660726232720e-02,1.423963584204561428e-01,-2.398174810673819879e-02,-3.067653085891297593e-03,-1.102231000758893686e-01,-3.568174358592450524e-02,-1.038442779135117233e-01,-1.057228201609692331e-01,1.164735861812338513e-01,-2.657527722775285262e-02
-4.151995054236150284e-02,1.429483535464768085e-01,-4.560555375482074070e-02,1.434368847789208035e-02,2.813110315826705676e-03,-1.153916363993551242e-02,4.621784669842987636e-02,-8.065775879391472170e-02,-1.084542975747931071e-01,-1.421123316204817577e-01
1.153548054098320341e-01,-3.032728624171183995e-02,1.274585581458481942e-01,1.480719686004377811e-01,1.476669654833289436e-01,7.934510535784469742e-02,9.940464632154402680e-02,-6.683586161373668288e-02,7.204677055373928662e-02,9.549713942614085349e-02
-4.975520064211508275e-03,-1.059356663222513206e-02,8.506798816961286258e-02,1.844606477227811459e-02,4.723277699778200001e-02,1.055909290016102398e-01,8.453321556282722415e-02,-1.091896338501286146e-01,1.284858474037844644e-01,2.148176543681354356e-02
3.189881885778542148e-02,-2.922537735622211807e-02,1.016039035746078290e-01,1.453464954544519683e-01,-1.146029719241936640e-02,-2.965171395991841874e-02,1.127113332984230609e-01,-1.504312832232507224e-02,-1.323140820878891954e-01,-1.287377425783743368e-01
-8.552570551038887747e-02,1.406400360879060119e-01,-4.960451612670416233e-02,5.959332553240559438e-02,9.569342921583187667e-02,-1.014397047173289101e-01,5.737355893877227331e-02,-2.289977032827150705e-02,-1.356619148149295906e-01,1.393542680763789343e-01
8.850258516705955536e-02,7.159049939369291349e-02,-6.326034007842770701e-02,8.288619294166632567e-03,-1.041243484362186500e-01,-1.027544363551474438e-01,1.028697971250786269e-01,9.903782679005393441e-02,-6.392452328535855322e-02,-5.916481904513708201e-02
3.721452309032707850e-02,4.633070151443574591e-02,-1.139859558886147095e-02,5.340402371155661410e-02,9.359306521264712520e-02,-1.500803756636154285e-02,1.474228621440259179e-01,-5.454548959933622210e-02,8.900396196002299809e-02,5.766043085618732800e-02
1.478232407354501954e-01,9.674086846172635923e-02,-1.262490372454846133e-01,-7.856894592388950771e-02,-2.631647583556948056e-02,1.143892580779048707e-01,1.118965592281944976e-01,-5.332530238439658898e-04,6.150248172889505316e-02,9.114250729652512151e-02
3.764550137311553635e-02,1.020864820790805261e-01,1.466917598268824008e-01,6.201280725766472601e-02,6.958073944496578900e-02,-1.030188347885276634e-01,6.615964764352627592e-02,-1.409430263709942344e-01,-3.218445068391932729e-02,5.396401275940018727e-02
7.324645341997332304e-02,1.414970668225755956e-01,5.374380056923810933e-02,-1.020888884690882292e-01,-5.453136494959090474e-02,-1.141277313439931218e-01,-1.384477989875832760e-01,9.175587210248917214e-02,-4.981060097142543663e-02,2.227596815911370154e-02
-1.956215946820427654e-02,3.430858814496751119e-02,-1.150041995741968581e-01,-1.723089470655778110e-02,3.271828111564722974e-02,-4.498568544610771769e-02,1.038421109422768274e-01,2.961116306214395255e-02,-4.098754967466618215e-02,1.251026014767345484e-01
7.424661209473001899e-02,3.311910780112217734e-02,6.026722282049445933e-02,8.845313099928281408e-02,3.876436414748163362e-03,-1.590149931456155685e-02,1.417786287760407771e-01,1.356920824895850031e-01,6.919001519787496002e-02,-4.695521664241976423e-02
1.030294129763248412e-02,2.125635538840114913e-02,-1.091414028512927570e-01,-1.220807336766074752e-01,-3.474441165589484126e-02,2.136698666201836128e-02,-1.023377378890809597e-01,-5.257346645149668651e-02,1.066203831465347418e-01,-1.050328894036598459e-01
3.048528962783755847e-02,-1.414555710500688401e-01,2.503487363896245155e-03,7.212756887596372124e-03,9.949288868488384563e-02,-7.110438124020541928e-02,6.949205950008419119e-03,2.659672624381240191e-02,1.123841422033801385e-01,5.658692101994328150e-02
3.417348479551232665e-02,1.281299054622831168e-01,-6.777181133532125812e-02,1.339274418715631076e-01,-2.163250473100722382e-02,-2.697782362140216383e-03,9.078491600084412361e-02,8.518121687399035635e-02,-7.211736891436627828e-02,-9.720143172837911183e-02
5.404620834161863452e-02,3.780803157787729352e-02,-1.470883909622390795e-01,-4.965904956784723823e-02,-9.863275116667116760e-02,1.079608265499412689e-02,-1.026745641919008800e-01,-8.805380263728411483e-02,-7.426980769848601227e-03,-1.136233764898218201e-01
-9.908411408834270906e-02,-3.317365984695873349e-02,-9.095504322472167114e-02,-6.642412903375412292e-02,1.092371418354181334e-01,2.550869122491916663e-02,-9.636966197741742013e-02,1.934089580159614741e-02,7.040213257398775237e-02,-1.188107750987369288e-01
-4.649475819493679996e-02,1.160670026112571029e-01,8.905430309635284369e-02,-1.128608512051749724e-01,1.302954982842488840e-01,-7.998530755259443403e-02,-5.121984223067881092e-02,1.270868214483723280e-01,-6.156506710257643455e-02,-7.618916755395051255e-02
-7.641917506682673056e-02,8.329783175932695127e-02,-1.348593638936792516e-01,-2.759121673844025513e-02,-9.463852007972756164e-02,3.349155314736065869e-02,4.731586985389732436e-02,-9.682769939693497419e-02,4.941541604956201095e-02,-7.121250055227919262e-02
9.049165049569721231e-02,5.350254152947758746e-02,7.676862051173993784e-02,7.756861043932081201e-02,9.484069726555902080e-02,1.198263618764192073e-02,9.745540198936428200e-02,1.812655678036093065e-02,-3.209971324687697913e-02,-1.008574139888604448e-01
5.046144926587875501e-02,-7.683275842077931517e-02,1.930721680821767539e-02,-6.738765204032715062e-03,-9.044484606832228768e-02,-1.482640469760770630e-01,3.141335147546511775e-02,-4.204305884889757150e-02,6.246208514621764962e-02,9.569299408955497799e-02
-1.981838597703128313e-02,-1.405656881648201240e-02,-1.064880767874329254e-01,-9.222259190820096542e-02,1.190212763835459542e-01,3.825651576632729811e-02,-6.458461504561836819e-02,-7.467298145058172409e-02,1.228264845223485946e-01,7.198735243496140468e-02
-6.521882319041835685e-02,-9.054204242165059258e-02,-1.477080079214289909e-01,7.271515682038870443e-02,-7.148993473072830229e-02,3.298259203132419826e-02,1.841344054622329196e-02,8.524639566111355538e-02,-7.262745884054844225e-03,-1.230073481450510708e-01
1.473839005152971227e-01,-6.533790901595405709e-02,6.383130335916628595e-02,-1.378155085599434004e-01,1.252010472406441532e-01,1.146698218778553213e-01,1.449256753168810252e-01,-1.437255868091699695e-02,2.550945019463066177e-02,1.285819431476945829e-01
-1.263267791381311178e-01,2.436046479501646767e-02,6.768532499247834067e-02,-7.648397210636459498e-02,2.843594671847471389e-03,-8.724301863245960409e-02,7.739980880768665417e-02,1.038917185085769246e-02,-1.204837908141335734e-01,9.338247143309166831e-02
-2.242862366073700153e-02,-5.136753935511821634e-02,-4.148725629769690892e-02,-9.743037720944966451e-02,-1.315801465647015445e-01,-1.079977228237042064e-01,-1.371170712440694939e-01,7.876513575250881916e-02,1.179660973922042888e-01,-1.048303336660321439e-01
1.370551282143417371e-02,-8.303384689825502041e-02,-7.046862463272636490e-02,1.025431135766423918e-01,-1.287269687862664103e-01,-5.253823884659969412e-02,1.102917698162309279e-01,-9.837534295536956575e-02,2.383471323201188929e-02,-1.025911731862366727e-03
-1.167135575916099788e-01,-1.827961714241876923e-02,1.380135837385725595e-01,-1.481156587819989212e-01,9.401576544410014669e-02,5.786834664967210884e-03,-7.442898834755684589e-02,-1.725773448159101386e-02,1.483903812736079020e-01,-6.613346554169126368e-02
-9.623731508850569272e-02,-4.842297214396884542e-03,1.429774131078840604e-01,-1.340364373352193883e-01,-8.206471467483884841e-02,-3.559281053345488000e-02,2.092974628031726847e-02,-1.186045048883894726e-01,7.567445658286134358e-02,-1.395614761449728292e-01
2.182166050877798469e-02,-2.260144987854470489e-02,-3.161997395559387747e-02,2.446862183560830073e-02,-7.285184546708219078e-02,-2.239031103261965305e-02,9.342544616492018394e-02,-1.219960794367109663e-01,2.562120225048986066e-02,-1.188761367860049212e-01
-1.338506093571731337e-01,-7.347662153546916097e-02,1.064682325813458841e-01,-1.163011493904639870e-01,9.880492304543708748e-02,-1.029150863528444926e-01,1.428776772883218749e-01,1.269260854467722244e-01,1.105087094332125319e-01,1.099467902029764022e-01
1.202353555841908783e-01,-6.346256509729371331e-02,4.007416780137604273e-02,4.971197367752122620e-02,-3.394507878058797279e-02,-2.486702194393911047e-02,-3.950477778083903713e-02,7.886572657071957981e-02,8.600349628396899981e-02,-5.367961466075472921e-02
-4.629314756751955195e-02,-8.132805368703184545e-02,1.191236943247158953e-01,5.713749168319498528e-02,3.332127452984023908e-02,6.116531981208747637e-02,-7.742209350438007676e-02,5.011583707015182521e-02,5.591306325256412135e-02,1.235450475279933069e-01
-9.179374553109245771e-02,-7.555001383616455346e-02,7.036145327430393115e-02,4.097683841230465029e-02,-2.297697512739857451e-02,8.852985862444906484e-02,-1.211777816927639417e-02,-1.203566128529571788e-01,-7.679535804789110187e-02,-6.598999746394468291e-03
2.486311634357965539e-02,3.433574192448896056e-02,5.785136108426441881e-02,-1.186917378862238082e-01,1.328079736566397384e-01,1.480378018797965101e-01,-9.475001488771164770e-02,-6.298847919663441708e-02,-5.938257140698000036e-02,4.242971804414485959e-02
-1.307815230027686015e-01,1.245013415210987351e-01,-4.862894971031707370e-02,-6.023405227908144866e-02,-9.339656655027062104e-03,-1.158358770498880141e-01,-5.557396728708752232e-02,-1.461879403144589196e-01,1.090277293550024063e-01,-1.227524960474237758e-01
-1.473132087733522166e-01,-1.060863955850221418e-01,-2.749010804665633079e-02,-2.049158636124956412e-02,-8.508517953024526126e-02,1.251948959471430867e-01,1.980538192194297720e-02,1.399705913169568827e-03,5.285914189650617323e-02,4.674791051273677334e-02
3.494096292370454937e-02,-1.512846562663927585e-03,-2.737068943930962006e-02,5.554343129820055180e-02,-1.490976919042046323e-01,-1.083007195483582930e-01,1.264833269988996645e-01,4.665368170108866175e-02,1.194778353116955627e-01,5.494210668077204041e-03
1.499979909306998482e-01,-1.290097594243564683e-01,9.709582764040777803e-02,1.496321264066929890e-02,8.853246636821229809e-02,9.754825676651790456e-02,-4.148541683218320841e-03,1.032950790079046055e-01,1.122690462941472733e-01,3.519768346095414335e-02
-7.871763512299732868e-02,1.003542453137386825e-01,1.036644717288357775e-01,-8.133310423505943354e-02,1.292374984625899448e-01,9.940211279667179878e-02,-2.072801334287041608e-02,-2.194375015011368335e-02,7.431445718527801558e-03,4.325393382354200678e-02
1.472539427113502553e-01,-4.076213260916729253e-02,1.401133206651681562e-01,3.894195713805531645e-03,8.544145761504232106e-02,1.299763079875651262e-01,1.137375201506608258e-01,1.405402084579656374e-01,1.172015529843820902e-01,-7.627409956279872227e-02
-5.451758992137845095e-03,3.858179205734718620e-02,-3.396377138871461976e-02,-1.093917226457230829e-01,-1.746995346907209701e-02,-1.171691566461692813e-01,1.223414176068868542e-01,-4.195924907810244520e-02,-2.978738520576285076e-02,-9.440034579339227905e-02
5.316528637993561679e-02,-1.373207949542572803e-01,-3.066285009276338569e-02,7.280718217024420569e-02,2.900842576600481948e-02,-1.160811430946604994e-01,-1.253675545445478989e-02,4.449321358322716469e-02,5.014825802720795922e-02,1.229874473268193491e-01
1.248662070666362867e-01,1.876963901521180866e-02,-5.446097652052812876e-02,-2.248628178404293854e-03,1.365050447186848814e-01,-6.969877768775750715e-03,4.779287818113878150e-02,-8.962806454106096721e-02,8.110607989597087841e-02,1.944775688301420002e-02
-2.569040236889111317e-02,-1.199227169999563664e-01,-7.718001153402799519e-02,-9.026141481518772103e-02,-1.228042615811868327e-01,7.922450847153575393e-02,1.333905993432648873e-01,-1.205081699964469510e-01,1.040988070163250956e-01,1.254225274744788232e-01
1.064611302062323517e-01,-2.177834412396151276e-02,7.199961693806911089e-02,4.860710812054769292e-02,-1.373565246486520841e-01,1.483030442283821138e-01,4.443198951432689170e-02,-1.417709302251237702e-01,-8.208027532383567471e-02,7.609181556655603140e-03
-1.496841800645098142e-01,3.388800884012732606e-02,7.231837424825932059e-02,-1.252102726256553444e-01,1.831365565718529043e-03,5.381900003196612992e-02,4.750768449797290738e-02,5.567636017450344754e-02,4.687071755957655794e-02,1.416176938740927038e-01
-1.397707375593265355e-01,1.129683330034801647e-01,1.392043569455569674e-01,-9.362651154895573757e-02,9.604248538029958038e-02,-6.925798068998845203e-03,1.196773630364425245e-01,-2.072864067390378651e-03,9.350826197758960179e-02,-1.227294267600372718e-01
-1.296382196730860858e-02,1.454619308762147012e-01,-1.249666299836657973e-01,-1.433042294601945266e-01,-3.994128642477692837e-02,-1.071648644169888309e-01,-9.080325392353544300e-02,-7.951776742822221078e-02,-7.044042366227272478e-02,-1.105904384343773528e-01
-8.323336252199703411e-02,-7.469526591315066300e-02,8.892885799679844938e-02,-2.471741105175784270e-02,1.443235044400564548e-01,1.561030468239132940e-02,-5.580550170198429749e-02,1.477309259707094424e-01,1.208812703270019384e-01,-1.005234402657245452e-01
1.247338065999309409e-02,-7.482925712512474015e-02,2.958335306398443554e-02,-2.774820049814127887e-02,8.295225062211059042e-02,-3.099522624148150218e-02,1.282891379346109972e-02,9.559246040068933303e-02,3.076756192828500325e-02,2.730741471313807844e-02
3.982759277597891501e-02,-1.493478052880783669e-01,-5.439050769385485318e-02,8.569697007488860652e-02,-1.187298103868406063e-02,1.212289148422529272e-01,9.898254365516351294e-02,7.579565015756992152e-02,4.558426813268992572e-02,6.737347822990036317e-02
1.401784631345101562e-02,1.398896581438875686e-01,-8.850871269427246224e-02,9.167332432935468289e-02,1.045651635994238882e-01,-1.612622219417381153e-03,1.206454011029222395e-01,7.897201173976520217e-03,-5.714565600463378248e-02,-7.779976589657068564e-02
-3.659876051096981608e-02,8.357959760346325706e-02,1.477440978422200624e-01,2.430961151794264197e-02,2.746525042425804197e-02,-1.874642774225804276e-02,7.693526279376619592e-02,4.869525218886486262e-02,3.228496059935620499e-02,-9.839414090369005828e-02
-5.284790627338245561e-02,-8.267939457966584638e-02,1.453927826352461039e-01,-7.275531539703672390e-03,-3.721630920079824212e-02,4.401437247919304241e-02,5.054469829333210762e-02,-1.455776176318805681e-01,2.124095068020145916e-02,-6.853859109894905322e-02
-1.475548225498232724e-02,1.369289556708447042e-01,-3.106620953062226576e-02,4.682313444914820710e-03,-6.177964281690374870e-02,3.781396393438449244e-02,-1.172586215201297521e-01,4.705427099942582903e-02,7.935992169261590901e-02,8.998081502229859918e-02
4.785926293311063007e-02,1.260068285473776306e-01,-4.275981749602465742e-02,-4.112560009912605286e-02,-2.402896175464705464e-02,7.174824904739252052e-02,-3.683228866428016335e-02,-7.714571169959108521e-02,1.429707064016012275e-01,-1.428713272517106447e-01
-2.826207735148784927e-02,7.139314284187148196e-02,1.327099663596918167e-01,-1.021431222570175351e-01,1.023778394661307434e-01,-4.696157571448085488e-02,7.657570144228945108e-02,-9.688632893241616584e-02,1.251396717041165785e-01,-1.848787174535637678e-02
4.301768935125688254e-02,1.171569055146755300e-01,-1.853867589423990880e-02,-7.384965061827857002e-02,-2.112258014589887822e-02,2.935800255377285506e-02,1.104502819721425444e-01,4.679547704212128068e-02,1.126802976664635081e-01,1.195858989183351262e-01
-1.074745161292917084e-01,1.361948914835588165e-01,-4.384025586371871619e-02,9.597268575408801627e-02,-1.328405401936865460e-01,-1.084972418342197015e-01,-8.104129200221317497e-02,3.200231317617563409e-02,-1.430446880801699572e-01,-1.277509873525842499e-01
-9.196745042190490604e-02,2.379585343482282234e-02,-2.369114831199464755e-02,4.074743881255782352e-02,4.976211593222823470e-02,3.253539391802523495e-02,1.346481869655731523e-01,-6.638856257368509761e-02,-8.208445495965333016e-02,-1.024882566632820402e-02
-6.251300713403545872e-02,1.091304568897694394e-01,-4.848207273617845259e-02,3.515562663239857333e-02,-7.609535265076546040e-02,-6.510694776763227554e-02,9.745507996091909431e-02,1.069754847296986167e-01,6.681262697214096491e-02,-3.832165831727650518e-02
5.042442421200471481e-02,-7.944513570868723396e-02,-1.468945530456031157e-01,5.001596676850567080e-02,-1.231867018221803889e-01,3.741632244932638351e-02,3.747438903852559622e-02,-1.180205685772858087e-01,-1.597038595858377152e-02,1.199965804079524967e-01
4.979866827412160468e-02,-1.234238358510584832e-01,-1.178869346040309768e-01,8.556123156879444358e-02,-9.559179153638019955e-02,-9.809380922632338073e-02,-1.212246384095810869e-02,-1.237993285904497864e-01,-4.915724991290196244e-02,6.290549872394593511e-02
-2.789938478977849190e-02,-1.144268301737220994e-01,7.878359763280023964e-02,2.495585732841476556e-02,-7.541695999262149064e-02,1.300823778389641194e-01,-4.855311803831030559e-03,1.675029135757019616e-02,9.580107716710314913e-02,-4.057472822052599071e-03
1.185222580551775762e-02,6.374102715627646965e-02,-7.578340223292702460e-02,5.170070554627703707e-02,9.315887655927801436e-02,-3.533922971661219992e-02,-1.612278579853271276e-02,-5.607549137655649940e-02,7.644459790825003376e-02,-3.933748303959426484e-02
6.266007081658014899e-02,-1.211076435345828095e-01,4.335581958644196821e-02,-8.726460298703321572e-02,-6.960566932391798467e-02,-4.257247855390751401e-02,1.375673779839084454e-02,1.077843505130753055e-01,9.285771512823956519e-02,1.263459493631365615e-01
-1.533913868032887873e-02,-1.124109558396471364e-01,-8.254170621965056798e-02,-6.857988582673751887e-03,9.645612931033067938e-02,4.275766907885586443e-03,1.333906099312719695e-01,7.553527363357354085e-02,-4.785890733269758390e-02,1.018643920805698266e-01
-1.304909632030165356e-01,1.326732306028815256e-01,-8.867136493555137500e-02,1.484779290354160397e-01,1.001496327449540036e-01,-1.178561215176062160e-01,-1.131458884226796135e-01,-2.855056510442320616e-02,8.519171322161808724e-02,5.635600914559893426e-02
-3.815233814916003940e-02,4.285515665142794473e-02,1.343888441290068403e-01,-1.036818262965120974e-01,1.338632701321159912e-01,-8.010886602773238663e-02,8.437178741600612208e-02,-2.439496516277728233e-03,-6.482144429223456183e-02,1.155795814510305053e-01
5.876879312198912686e-02,-1.473463783211102218e-01,-1.068819251938616377e-01,-1.009316759600674962e-01,1.021410721780466047e-01,-8.308734306314986828e-02,-6.930566934106803523e-02,5.184464003500210971e-02,1.192907543559459660e-01,-4.076176373582029999e-02
4.767911566527552325e-02,1.367034269983701533e-01,1.170318290543639062e-01,1.275977067505223161e-01,7.785418512709862959e-03,-4.496875070251066253e-03,-6.218873414532978539e-02,1.283971195848575830e-01,-1.113037389958021345e-01,-4.451039096536936468e-02
-5.975655485546722823e-02,8.877456992244464606e-02,-3.570447244411002752e-02,-7.965564181166839841e-02,3.276087464470794908e-02,-9.902459136622576708e-02,-2.960966405346002195e-02,1.251542610055318694e-01,-1.250544408605960278e-01,-1.697009207775629358e-02
-9.626216371506217395e-02,-1.526515862381588873e-03,-1.090187455937991767e-01,-3.182666763105468366e-03,-4.796243977960971960e-02,-1.404018220374743942e-01,-1.874587016997480982e-02,1.007473624755252095e-01,7.445897759011599337e-02,1.431578539813577189e-02
-6.260516591225959160e-02,-7.175915715517032500e-02,5.426023118778736110e-02,-1.453979032996960408e-03,-7.665558907431790914e-02,-1.383954167098262189e-01,2.329170181002193640e-02,-1.199209102750365546e-01,7.612363684092199323e-02,4.787946441505167017e-02
1.074853020990903241e-01,6.100922157662688750e-02,-1.863269220421040484e-02,9.505352718943627099e-02,-9.834256830248716552e-03,7.249172198976353010e-02,-3.381227884535609185e-02,-9.295189985314711301e-02,1.034907186083498243e-01,1.265497693261178613e-01
-1.236687377746552852e-01,-1.419115665361654344e-01,-6.700883488010428435e-02,1.256594490063964176e-02,-1.753231674087374348e-02,1.732795264359066056e-02,1.254593394734973555e-02,-3.835987351746801555e-02,-3.197459476430231096e-02,1.247636247225863138e-01
1.202136777634901788e-02,-7.032623079453283188e-02,-1.462433543056580465e-01,1.438193705190853600e-01,-3.400112227277465871e-02,8.223229622742855849e-02,-1.319824752626705400e-01,-8.273364933614392458e-02,1.453331268121376418e-01,-7.042622474089736684e-02
-8.071788450203538912e-02,-4.296379094455660130e-02,-5.702786249993792300e-02,6.160467175263842354e-02,9.434270922673129722e-02,5.618857525541831599e-02,1.487093104661415810e-01,9.494600237655595465e-02,2.703576082416081494e-02,9.315144975500580515e-02
-4.492865538580909091e-02,-1.820312543233687519e-02,-2.899535130945332662e-02,5.698216183321866413e-02,-4.223627763514721523e-02,6.681709887616407717e-02,-1.041014973033194124e-02,-1.112499166715515270e-01,8.625829603546658619e-02,5.113250828621795918e-03
1.215097434900027362e-01,5.682084899766060015e-02,-4.765319209849151749e-02,7.189526053700640018e-02,-1.025988661862742568e-01,-5.349101906713184251e-02,-1.114474321319765260e-01,4.395776478673943388e-02,4.704471937531046200e-02,-1.082741868337803448e-01
1.025518665247116268e-01,-8.169002555759283246e-02,-4.213156031233412924e-02,-7.804730881471953763e-02,1.296616739800576512e-01,-1.128145574254169475e-01,1.227110221601246665e-01,5.195135990000906978e-02,5.556839995035486868e-02,6.346438409598234576e-02
7.206773601817240138e-02,1.080715316264851122e-01,1.041630175143551107e-01,-6.122924957222279641e-02,-4.255770512838985553e-03,8.238552102633994734e-02,1.061637519692631704e-01,-9.648887975146969165e-02,-1.045410013308883113e-01,-4.350106790676548651e-02
-5.657980271610957290e-02,-1.388288642167977704e-01,-6.860836796578116681e-02,1.188773955893650258e-01,2.233674154173093118e-02,5.767848764010422014e-02,4.984746214160123978e-02,1.192544641454620635e-01,5.853040749365001627e-02,1.371805250432664158e-01
6.908689768086959115e-02,1.489892510120669200e-01,3.749846618110175278e-03,-9.448831713113642339e-02,3.276004069777557759e-02,-8.254662880485669207e-02,7.062276038510506559e-03,6.545575388882157730e-02,-1.314541660315188543e-01,-2.012581962445256223e-02
1.018827966351151526e-01,-4.688316446760032452e-02,3.653659143416870814e-02,-1.229553694000756758e-01,1.353533517969890410e-02,3.364373467025660869e-02,4.932314841652124526e-02,-9.014680587423506974e-02,1.493271886319551267e-01,1.225666954629745231e-01
-1.253617419260716348e-01,-1.379745125730512112e-01,7.410726993434921250e-02,-3.039643090526822355e-02,1.267398865184645451e-01,3.404190480038429834e-02,-1.056462403805763783e-01,2.926456440632144163e-02,-1.444810970256286686e-01,6.296242083530004252e-02
-5.488035862166713852e-02,2.734304032222023562e-02,-1.438558629184407689e-01,-2.401516613211879259e-02,6.532644452602698326e-02,1.309166097243202043e-01,8.394013767350419486e-02,-1.430756104513529470e-01,8.080368543182428476e-02,-1.219500305448778521e-01
1.175022808076694736e-01,-9.799242095037806466e-02,6.521519688078258881e-02,1.236685271576294098e-01,-8.258759777537537372e-02,-7.657436637892185705e-02,1.111819160006366214e-01,7.239082992822840068e-02,6.639053041884723783e-02,2.060293827510806253e-02
-7.296544055111817140e-02,9.764535454944417436e-02,1.202921278220554779e-01,9.800532528144853539e-02,-1.409866266586648764e-01,3.639998246806727678e-02,1.291766076797154217e-01,-4.906740256239565390e-02,1.120607781033988448e-01,1.420610016768371342e-01
1.454168747960833674e-01,-2.904950837172171063e-02,1.440718585362355808e-01,6.554442665248122468e-02,1.426285509219347436e-01,1.325549438979443384e-01,8.546504705550572734e-03,4.642092669273928385e-03,-2.391048951182128679e-02,2.573684927315786353e-02
4.663914693501808317e-02,-8.614014127752435412e-02,-8.486644952963476318e-02,-4.020466976529547820e-02,8.025517878629803703e-02,1.097652126872903644e-01,5.753704221734581847e-02,-1.220985079039236393e-01,2.773076640259275472e-02,1.534839031507251317e-02
4.399710305158072154e-02,1.273106398852223153e-01,-1.359013966265583406e-01,-1.227740941645287936e-01,4.391122623130588876e-02,7.223933053129594217e-02,-7.824110210797809162e-02,-4.219065570534483167e-02,-6.542218324353328562e-02,5.145552391431443273e-02
3.590976994436095859e-02,2.758474792153586819e-02,4.251794719674750755e-02,4.161670401198191982e-03,1.192608607849121871e-01,-1.068256049834137578e-01,9.766350140964327742e-02,-1.367227669462679762e-01,-1.130206482601465445e-01,-1.553746631628200037e-02
9.577395339498084859e-03,1.233089042501655241e-01,-4.865993365974817519e-02,-6.263946136622380867e-02,-6.307017361689690182e-02,1.320085778248838992e-02,-1.194125618630620528e-01,-1.903460856416905322e-03,-4.856728351459506376e-02,-8.083384479966769509e-02
-4.441406308828206584e-02,-1.305571183432322757e-01,6.277148025735154735e-02,7.897706210372659741e-02,-1.320494287161505520e-01,-4.168952717217011550e-02,-1.232144785018511879e-01,-1.132182193697326422e-01,2.701076536633062464e-02,-2.838236445885830572e-02
1.053757151643175682e-01,-1.141704891623720186e-01,-1.480155164330153594e-01,-1.466219456994277692e-01,6.684474074356480666e-02,-1.529676215632574943e-03,-7.203050654963806532e-02,-1.045056005062010851e-01,-1.018983390543578005e-01,8.856367032717027410e-03
3.757946786374116721e-02,-6.126475205207870811e-04,3.898136420664138901e-02,-9.310433456951708320e-02,1.141273300711423688e-01,1.336945658273954451e-01,-9.498285783754573108e-02,7.141907673716502147e-03,-4.541679113296470671e-02,7.036817715891813263e-02
1.472361407922176679e-01,-7.152901897475144599e-02,1.147454773461230315e-01,-2.596586926889384028e-02,-1.366536204783669328e-02,2.258320209701764059e-03,1.454766137626082589e-01,-1.162302305924510781e-01,-9.349520381585732509e-02,-2.010311942556186615e-03
-9.732394914656267160e-02,-1.411100815659245833e-01,-2.565123366032090457e-02,-1.097156409591587556e-02,-5.719382356501923059e-02,7.608080618534615591e-02,-1.472807162423852012e-01,4.916713396885485921e-03,-3.990979471493984188e-02,-7.959920986606494608e-02
-9.444642199574901364e-02,-1.414439364063459770e-01,-9.674221150626075016e-02,6.949423241971275367e-02,2.441481497637604248e-02,-5.116624671614207476e-02,1.074484650600183444e-01,-1.307516022783864473e-01,-1.286884545258470958e-01,-8.481947660393589217e-02
-9.998820437522315530e-04,-1.551750461519629809e-02,-6.913420635672813674e-02,3.697454228684837751e-03,1.312026334655901627e-01,-9.529147942105312130e-02,-1.118114655727340118e-01,-1.142761474942638189e-01,-1.245686888233568657e-02,-1.480331784739516432e-02
-7.757573654840199673e-04,7.000301123815061421e-02,6.591390717903028440e-02,-1.151993912231301515e-01,6.841226592883190016e-02,-8.600195511325871289e-02,-3.388240880534779120e-02,-1.374941259681634609e-01,-1.148645364863769558e-01,3.098564685057245138e-02
-4.403688205935560318e-02,4.065187414050347448e-02,8.220390867694257753e-02,-1.440492137429120190e-01,9.986564831212380033e-02,9.730405363686003839e-02,3.677242775630279459e-03,-2.255488022601870313e-02,5.809093889202179839e-02,3.455289313476289648e-02
3.136070342418556534e-02,-1.186987590569127948e-01,2.280151193981019841e-02,4.116161526060596598e-02,-1.450107116337947255e-01,-4.502053146475949730e-02,1.410827107103191091e-01,-3.115248174385545910e-02,-1.216012166152043716e-01,7.366150191212983422e-02
1.785972308267422259e-02,4.394518522862395082e-02,-5.524357913671108788e-02,1.043140962155839901e-01,-1.403027293901727424e-01,8.090614093520742678e-03,9.923728583377366963e-03,1.468372481178456535e-02,-6.895054804234819479e-02,4.816176585061129889e-02
-4.224561709626968586e-02,1.108076329527796222e-02,-8.645669115036301589e-02,-1.456878323827001942e-01,9.528719297928189835e-02,1.477744354640075641e-01,5.274952792233603138e-02,1.383390668403094159e-01,2.828898904557608507e-02,-3.336084179502660230e-02
9.267994301965695736e-02,1.384434964119618805e-01,-1.114571266930653309e-01,5.474816384097427879e-02,7.189531048976832706e-02,1.325363048187309933e-01,7.846330888385208424e-02,-1.866434080282586283e-03,1.228425403047250786e-02,-8.668027602464788151e-02
1.226607406290896873e-01,-4.397776181200560575e-02,9.909230173007393949e-02,1.403149904770889522e-02,-7.359432529485383789e-02,5.884896577121961903e-03,-3.484627067872886341e-02,4.846215704379883138e-02,9.211382973657894491e-02,1.447653602245822235e-01
-1.401639833309302474e-01,-1.256462918793493644e-01,-1.473147576770379719e-01,-1.424029188668425594e-01,-7.938185644838796629e-02,-2.026312084917228362e-02,5.282578293943002157e-02,-3.541007590740528899e-02,-1.025583533195780078e-01,-7.263648640112697896e-02
3.102490551676567732e-02,-1.261461132396652640e-01,1.443745965735243608e-02,1.162609765432028042e-01,1.220613763553537179e-01,4.782671067617461080e-02,1.390244401911172878e-01,4.442108922372806079e-02,-6.880996079598977744e-02,-8.878340508352672300e-02
-1.050597868221500586e-02,-6.883925268587220980e-03,8.270288492000316127e-03,3.955106280583292611e-03,8.602968869518018424e-02,5.617267303831918746e-02,-3.058346739458588093e-02,1.432060965825704413e-02,-1.013657041283877874e-01,7.619437689100930222e-02
-1.341651633670544463e-01,5.495210570230502078e-05,-8.281171192975682327e-02,-3.755803173382567250e-02,9.425906147325616158e-02,7.512904113169380227e-02,-2.297847058439422829e-02,-1.336569514164438754e-01,1.135648326362365956e-01,9.016719441566370397e-02
-4.857094834930272831e-02,8.449023936451705019e-02,4.957515571221066120e-02,5.570786719035833445e-02,7.139545750728587548e-02,-1.271394334214945299e-01,1.369364872123135513e-02,-7.261932347336408355e-03,-1.275256166050381945e-01,-1.395932652768177296e-01
-2.568621515578865810e-02,-1.032623343734712373e-01,-1.318942183115744682e-01,-9.777912086067888642e-02,-1.866679582498945167e-02,-4.942274547221105208e-02,-7.156306650995560015e-02,7.368802189536671765e-03,-6.158079108193953433e-02,-8.890133319661552846e-02
5.958225710157624699e-02,4.139477959613446778e-02,1.021723463514796759e-01,7.492064870403333798e-02,8.001112997287937456e-02,-1.074529329625883850e-01,1.475824119983310256e-01,1.116480448173754747e-01,7.402373222431563038e-03,-1.221397771909148444e-01
-8.883966314615715509e-02,-9.668010199170010144e-02,9.135697244694179764e-02,1.107576743994251600e-01,6.802416190371748939e-02,-6.795666093489860504e-03,-4.799321635039772993e-02,-1.021766764948467410e-02,4.291363172021792072e-02,-1.486107450515836426e-01
-7.155054647141001478e-03,-1.418527339069637627e-01,1.688749881557385923e-02,2.577767866605834568e-02,-4.557573718569329912e-02,2.123207537615728890e-02,-2.194060323925994815e-03,-9.434353865341418843e-02,-1.451548801548317724e-01,9.551004022444992136e-03
1.002871661462509667e-01,-8.161898712853929427e-02,6.208344796988296554e-02,-6.744244260233595023e-03,3.569349784164432826e-02,1.365942208460984297e-01,-5.630848733072621459e-02,-7.365119587401905421e-02,-3.237318204016706447e-02,-1.262562415063256116e-01
7.612400846294356538e-02,-1.179585410526600986e-01,-1.029793828619229856e-03,-8.026698703809544144e-02,-7.737038529586198754e-02,-1.405493834494029870e-01,7.655961508573705387e-02,-8.898434302328242507e-02,-5.441910171746171254e-02,-1.414608060392410771e-01
-4.703197002629810886e-02,8.966399798979582392e-02,4.482909547145280671e-02,1.043613237810982752e-01,-1.203092488264472792e-01,-6.915770017881837928e-02,2.704107327444132958e-02,-4.281611614082343753e-02,9.115222200925623963e-02,-2.116471378433573691e-02
-7.994432495459780075e-03,4.899988025156148952e-03,-9.332854008531182854e-02,-2.695739699148036461e-02,-1.134281484486235336e-02,3.205070314360070061e-03,-4.929492546681152332e-03,1.479473335637960518e-01,1.298637209450899388e-01,4.883227440180909484e-02
3.603114334733023560e-02,-6.450749990539694778e-02,4.415177761892180586e-02,-5.518308398321161712e-02,-1.335354383366507969e-01,8.721341635835422323e-02,7.800600139057242699e-02,1.429550750826166505e-01,1.140045581264602370e-01,1.075648731138491299e-01
-1.153788251261878839e-01,2.639311501024191320e-02,-1.467186288649487136e-01,-1.678054929541947238e-02,-9.961009118676938945e-02,2.838603618903901005e-02,-4.793621101402606444e-03,-8.898977813633798806e-02,2.199698273086958533e-02,2.109521032170935673e-02
1.151559502389692680e-01,4.894468563509948855e-02,-4.435649635278318681e-02,-1.086633548893795320e-01,-1.393511294932645028e-02,-1.414291980073759392e-01,3.500208851354205675e-02,9.173609090036560776e-04,1.266567356979485803e-01,1.065758916828585534e-01
-2.069062123706566503e-02,-5.121555190185234085e-02,1.061820091293399770e-01,1.380492036124704447e-01,-6.719867424315184579e-03,-9.106319989936277615e-02,4.253599849966127611e-02,-5.270456669758304125e-02,-2.985790794489039113e-02,-4.095637301476952319e-02
1.185857137858478960e-01,1.014825197463656570e-01,-5.602397459178901085e-02,-8.865407542518871642e-02,-5.964225920621069044e-03,-1.055205345364884362e-01,-7.206500811151372865e-03,1.329321896658654800e-01,1.006290931966769830e-01,1.260869356009352849e-01
-4.971039620181211260e-02,7.621562203212267628e-02,5.144615632785060066e-02,1.415130543817211539e-01,-1.310248347238669453e-01,2.933053914037012100e-02,-1.018950489358424749e-01,-7.944107923669230242e-03,8.627544409117895996e-02,4.875111503282972270e-02
-8.361063120230013967e-02,-2.732114549618888666e-02,1.476015722278413989e-01,-1.331490654730700107e-01,-8.601071862317948014e-02,-1.585557052418534729e-02,-9.068640869151184392e-02,-7.304607962041891056e-02,-1.288518695379435586e-01,1.197684265773017731e-01
5.018955573614303223e-02,-3.273734842869358008e-04,-8.114085283997991838e-02,1.314160385844836965e-02,1.066458235503244534e-01,1.331650125925395167e-01,4.983619945532766216e-02,-1.417554921322716488e-01,9.539332849542295212e-02,-1.330986114653776309e-01
2.144563867134069435e-02,-1.474043246285366981e-02,1.100936750763084615e-02,4.081260938195141463e-02,-4.058698137111230175e-02,-8.038573997192001441e-02,1.142260347077917737e-01,2.812024787777089863e-02,-1.378427344394696219e-01,4.410537949564904969e-02
-2.586235873106627892e-02,-8.329538195875207940e-02,-9.900567831097201177e-02,-1.263634068543626199e-01,1.016967928227566209e-02,5.288269920672078461e-02,7.988631477365906730e-02,9.144883348658539024e-03,1.319397388852221742e-01,1.250446305519065382e-01
1.076460415386976954e-01,-9.576004046499486666e-02,4.881897544871799388e-02,9.368944453389871363e-03,-7.535715526449876522e-02,9.388498262604327849e-02,-9.533612905888770583e-02,1.128347503888084968e-01,1.296070064721804027e-01,7.910203858437780955e-02
9.880248034868807649e-02,1.003621555488093120e-01,-7.528125976753631543e-02,1.116555682429734575e-02,-7.002845269537781581e-02,-3.919813716690702388e-02,5.591512058996062073e-02,-1.247813410805201084e-01,-4.712090636195226390e-02,-9.959029490342552471e-03
-3.610135984574655565e-02,7.039104583174854435e-02,-1.221953107629644569e-01,-4.600052008501458178e-02,-1.395182672643694444e-01,-1.311877941369501421e-01,-1.453865678385016236e-02,7.446062030730665748e-02,-1.404300470575849114e-01,-7.037815145729776900e-02
8.912065870850957583e-02,-7.721619040541112533e-02,-3.614986726748720125e-02,1.389992529739250693e-02,8.346808162675023457e-03,-1.459317278264086193e-01,-3.984321950997042616e-02,-7.592673301793186058e-02,1.269735700769256959e-01,-1.303556641076160372e-01
9.778367176325103438e-02,2.656808183621872654e-02,-2.497133461831885226e-02,-1.215215528062179723e-01,4.461753541315655047e-02,1.232058199743546190e-01,1.253737566568969564e-01,-7.224831524677943762e-02,1.387505650970463356e-01,4.310861825313716533e-02
4.114529338092362543e-02,-1.107906922605566974e-01,4.205860231182342868e-02,-7.191634324232487607e-02,-1.152112680272479039e-01,1.848866741714944029e-03,3.191816837966535148e-02,-1.381554243185071085e-01,-1.318385950901468096e-01,1.388205736110646182e-01
-5.428373848271904334e-02,1.681618666275333518e-02,1.597590659075487363e-02,7.864671469981876495e-03,1.221730880131637054e-01,1.447696332650537931e-01,1.420260910969060320e-01,8.744545865067884782e-02,-7.438372386287682436e-02,1.325813643167021161e-01
-1.196131266699019952e-01,9.407742228460350131e-02,-1.491224632290980567e-01,1.275250149021027457e-01,2.009496669160951154e-02,-1.240761809570235241e-01,-1.391944108150725001e-02,1.202694528382417805e-01,-5.663823865416990622e-02,1.148027054724502782e-01
5.106836785689755631e-02,-3.681162848913141494e-02,9.783988838834919988e-02,-1.157568933200158745e-01,-8.977747166140903623e-02,1.009933386513766351e-01,-1.227066097604645467e-03,3.475929468494887153e-02,6.239576277278438554e-02,-1.448285482060553686e-01
-1.499645625381871572e-01,1.243172541231968020e-01,7.082744317230521558e-03,-8.236908177724971969e-02,-1.159496995573706113e-01,-6.619682650109497135e-02,-5.552877355246861601e-02,6.860065230236445100e-02,-1.071449491971836754e-01,-8.439952165433162179e-02
-9.654732428909801323e-02,1.112597427710718956e-01,-8.782056316426398168e-02,-3.987347462778340068e-02,-6.679154592101339827e-02,2.699933692971756560e-02,4.021440090821870594e-02,-7.275185891383534331e-02,1.173227178444818664e-01,-6.929802802172871368e-02
-3.797023490135098545e-02,-6.726576744911896832e-02,-6.996911295911260875e-02,1.186299211511812335e-01,-2.122761534606920630e-02,-2.518397054166804372e-02,5.537096337481339781e-03,-1.375590301327411225e-01,5.473194847069817737e-03,-6.197090543762377723e-02
4.433476936758937170e-02,2.597188798353614048e-02,-2.467870685523224084e-02,-9.795213496265331443e-03,-9.198145077686353810e-02,-9.858437205479912702e-02,1.311243699024540466e-01,2.404231557809888287e-04,-4.803313909415148075e-02,8.948813954223835965e-02
-4.140029629021380053e-02,3.325194858378505147e-02,-1.247051767435656960e-01,-2.459389462004002436e-02,-1.179304316903899974e-01,-8.474652836904318642e-02,3.583945027209922696e-02,1.673479617777345885e-02,-8.805638687325773040e-02,-1.321101266661527107e-01
1.133191788860689886e-01,-6.934624689676768816e-02,4.779619629493558897e-02,5.253040642315404130e-02,6.899689380032225650e-02,9.542885195612341165e-02,-1.183158083948277345e-01,1.039524513324353305e-01,-1.404989183341739944e-02,4.491893122151924267e-02
3.003443501714769814e-02,-1.332350232288631864e-01,-1.021096614929072610e-01,2.702164583832017408e-02,3.392254873381705949e-02,2.856086128945417579e-02,3.219323370934321082e-02,1.231582852569665654e-01,-4.429916395555937025e-02,9.549358144762590261e-02
-1.087547766999584498e-01,6.524470637933349471e-02,3.552167175230827589e-02,-1.492160770981355022e-01,-8.841817892709757931e-02,6.267995552724051067e-02,-5.237359960941706527e-02,-3.887041445433689346e-02,1.435924719316084841e-01,-9.698527220580357988e-02
2.600627223554513590e-02,4.173553359396195428e-02,-1.268543690779196931e-01,-9.424782942200529701e-02,3.674412382017516743e-02,-2.794110467290653044e-02,9.418211221874003836e-02,-6.984351196591177813e-02,1.130486379443240985e-01,8.023022975795640610e-02
1.158502423002918114e-01,4.212750593085798356e-02,9.334443316401241919e-02,3.102121385142977972e-02,1.085867824995912223e-01,-5.931573506882813207e-02,8.759890806252113027e-03,-2.567394281231230591e-02,3.941865885056278218e-02,-6.810320500228046747e-02
-3.132166988390726325e-02,9.325160019122527566e-02,2.780847768003363862e-02,-1.462588851064951789e-01,1.426648435370675705e-01,9.838748375923164757e-02,1.243674673448864343e-01,-3.896610452105242484e-02,-8.801090301063019261e-03,-5.847456293626847323e-02
4.687570131774732030e-03,6.560198577102785422e-02,-6.371222419954768179e-02,8.533084741573493393e-03,-1.419680629377684522e-01,-1.074737827473892793e-02,-1.458783695086160181e-01,1.199313288066481131e-01,-8.897140958951103851e-02,6.029664581300639425e-02
8.255722785491231841e-02,-7.729638855324569291e-02,-1.206413518291296061e-01,-1.021182723378552537e-02,-1.231327015907618949e-01,4.627315122990527385e-02,1.345373829982859648e-01,1.299567622341196438e-01,3.007085909820828018e-02,9.089813999161258651e-02
3.699251219906274368e-03,2.992025041692297771e-02,-1.043149033718568375e-02,1.020921785765553647e-01,-1.011514718622075620e-01,-1.217171855398217345e-01,-1.264940547482798494e-01,-7.008839327093548122e-02,5.801096591408805292e-02,2.201256772801224448e-03
-3.942886821142188580e-04,1.050572207331601504e-02,1.313585245295323389e-02,-1.451833147198355878e-02,1.317069141184535053e-01,1.454629666181315450e-01,9.409707329978425627e-02,1.426804433412199591e-01,1.395322216049479092e-01,1.333799567870067315e-01
-7.583993422046352018e-02,-1.074070347293288180e-01,1.213082016924202367e-02,-1.434829032987812725e-01,-1.763600732410630645e-02,3.743582068620637804e-02,-1.022889789582812070e-02,-7.733103485607700778e-02,-3.685251338041237168e-02,-1.383811201527951618e-01
3.136123863353118546e-02,-2.866625240092943172e-02,-1.176205055593757959e-01,-3.415317903027922930e-02,7.991398123935467002e-02,5.623405062217712302e-02,1.222305431234351480e-01,1.323121631110329988e-02,-6.022832387771379081e-02,1.254800427190152223e-01
8.422704195812952266e-03,1.142285019229497822e-01,-3.703421968550620058e-02,-1.363656286154260044e-01,4.605196636966049639e-02,1.257442422939972215e-02,1.301573035560162628e-01,-2.349689148331662869e-02,6.487585678028093272e-02,-9.136699336946171868e-02
-8.945932431748654379e-03,-3.771029929227813493e-02,2.806571312163694265e-02,-8.050263210893536525e-02,9.255840337756068847e-02,-6.428986286426741081e-03,1.414076039755640390e-01,7.563779823308286465e-02,9.609746500458271612e-02,-1.406316179067362560e-01
2.968295321512515184e-02,5.793790506181706323e-02,-8.280206443610330092e-02,7.136853901900297448e-02,7.227389050888516353e-03,5.815516300990114518e-03,-4.872299523193576731e-02,-1.498699910779600353e-01,-8.520589939425511627e-02,-2.451441971758958061e-02
2.078186902862150243e-02,1.466040382412258369e-01,2.450798196468265133e-02,-1.409514092134279695e-01,1.076263023946068265e-01,-4.347989451583590681e-02,1.082843544596431007e-01,2.830045635941236259e-02,-1.240645408032923641e-01,-1.017953969028516648e-01
-4.918221709508815986e-02,-1.224824070278013322e-02,2.115351625132275148e-02,6.157970001007265215e-02,-2.505388403217176374e-02,-1.938435793439219346e-02,-6.833637810957982062e-02,9.299509896962901423e-02,7.980949222015959466e-02,9.306154837960295412e-03
-5.171991369689821205e-03,-5.139890983558652315e-02,9.244494118529067439e-02,3.266941422985816801e-02,5.474747075087504911e-02,-3.006514016195872829e-02,-9.580949535437455200e-02,1.200916858464428916e-01,-6.482969872151030100e-02,1.450352603382315253e-01
1.951972249476499610e-02,-8.089025738606314686e-02,7.935542567796421976e-02,1.125188818426466064e-01,9.848352689883205224e-02,3.715381951929996873e-02,-8.441428597256966926e-03,1.047818253434555646e-01,-8.995388735774326183e-02,1.036236106957560688e-01
1.170629496138715087e-01,1.171323562405426899e-02,-8.685009863554112031e-02,6.116808540047427578e-02,-3.880831456944379421e-02,3.623944429356595887e-02,1.407852654033607542e-01,1.303164169736415190e-01,5.810377588058412979e-02,-1.268096515833915805e-01
1.102896078639479527e-01,3.976589720833961783e-02,-2.000704172755451982e-02,-8.041858137954925601e-02,1.162150820439562249e-01,-1.005140936914546146e-01,-1.032961913998702713e-01,-1.417097353618974320e-01,-1.471716805674405382e-01,7.879756790983238890e-02
5.648975895147892445e-02,-9.213432675084462509e-02,6.295593376531810614e-02,-3.370273183696718966e-02,2.523638452119436604e-02,7.856532599701404607e-02,3.748755541987358608e-02,3.919155459544798603e-02,3.734195604404660918e-02,1.472437192271068007e-01
6.031718873926364410e-02,5.994860863916534610e-02,-6.306599365048680406e-02,1.032266687141162598e-01,7.758504756902165345e-02,-1.287091466112042226e-01,1.646334811949068389e-02,-1.388467831349699255e-01,-1.128242082323794304e-01,-1.213159660822271668e-01
-1.010446399337056045e-01,1.133430657950373066e-01,4.057275891199829676e-02,1.270668906786415475e-01,1.395495215472651040e-01,1.071070539710147762e-02,-7.931926139953683619e-02,-1.278142954629581662e-01,-1.300211614318071141e-01,-7.680071407436946107e-02
9.102137107165528263e-02,-4.660996975576327250e-02,-5.825702016980051356e-02,1.204929803948595335e-01,-3.017456374319452128e-02,1.436350533157198794e-01,-6.246782252243121558e-03,7.570400731460030785e-02,1.083816758175007722e-01,-1.213390395118772447e-01
-6.254249317396028129e-02,9.211693741129955981e-02,1.291528913889979646e-01,2.478926865932207235e-02,8.505642195183849008e-02,-1.118880811157563215e-02,1.164662180375108935e-02,-4.647711422544761883e-02,-1.340653403130156462e-01,-6.665829881101860421e-02
-2.108099404091190454e-02,1.113567475716194244e-01,-3.229680661060238545e-02,1.313810999582548933e-01,9.177445922122695610e-02,4.551627219061349372e-02,-1.352172324226974254e-01,3.730868794969594004e-02,2.687226519557439630e-03,-3.145976870976546769e-02
5.799031908598872853e-03,1.322577824259331403e-01,-4.166587888523969052e-02,-1.197065548039006333e-01,1.326965525594831774e-01,5.968680382606283974e-02,4.567725962958152364e-03,5.384947127572189962e-02,6.640130848541431208e-02,-7.305673377004334723e-02
-1.143869071098942286e-01,-1.305603785059065436e-01,-8.911005802047480828e-02,-6.063028681429585842e-02,6.158008355821747992e-02,-4.211804285901694922e-02,4.889011942239265829e-02,-1.324575621144905291e-01,1.347347252845342569e-01,1.413080241265022574e-01
-1.018398987077615420e-01,-1.259553231370819371e-01,-4.212714439618008011e-02,1.493641042362101046e-02,-1.108130306713491636e-01,-8.578328498877051123e-02,-4.106216038198130802e-02,-6.864307788309043090e-02,-6.122984514037851933e-02,6.669407223374632099e-02
1.001436859960985470e-01,3.530520036558959518e-03,8.852022324057837177e-02,1.439167301878949423e-01,-1.696969147607005346e-02,4.364105214856392467e-02,4.244180377300926787e-03,2.294998400169229180e-02,1.131842358475041166e-01,-5.911628178555897173e-02
4.110833338001124160e-02,1.850155438982548084e-02,8.885346791499154628e-02,9.318540898895269486e-02,-1.464656184959477747e-01,1.365705789922649627e-01,3.194795514539197634e-02,5.601216290322638680e-02,-6.043839437102566103e-02,-3.607157771933300339e-02
8.737099083229624141e-02,5.095273196290681095e-02,-5.538717331233701524e-02,4.611461859390703077e-02,8.847310154097759449e-02,8.672708643654433724e-02,1.699607753960519219e-02,-5.461669299961098567e-02,-7.045314041240902103e-02,1.147131561715599990e-01
-8.790194391648423200e-02,5.807771672486328196e-02,1.278541808656316336e-01,1.180305702982017702e-01,2.647393739454784178e-02,-7.191250587199977951e-02,3.019458825490456411e-02,-3.894567837042596514e-02,1.381491360026240456e-01,1.036958342069539685e-01
-4.812686677746770558e-02,-2.620460948125735712e-03,-7.691125398503802224e-02,-8.531434134961025928e-02,1.014251938244229156e-01,-5.527089341746788120e-02,7.213959045523973823e-02,-7.881184378099859167e-02,3.425759140618378495e-03,-1.144690298132884365e-01
7.462360305718451770e-03,-9.544265694632159125e-02,9.718323515429017068e-02,-1.145619545578809850e-01,-3.718658204004453294e-02,-1.969227263580311527e-02,1.338316158831104608e-01,-8.021543127484404012e-03,7.755351864708565079e-02,-1.119147112512391684e-01
-1.053349742371073594e-02,-5.518505804090050038e-02,-9.927692882825077392e-02,-7.861418606964738764e-02,-8.669059728968851741e-02,1.091952119413415467e-01,-1.295550978499438732e-01,-5.192749058034962228e-03,4.421490960074445087e-02,-7.244284921398481958e-02
1.028743800254833252e-02,-9.327045537432324118e-02,-3.913616926786071815e-02,-9.432721883218175840e-02,-3.969304375434042076e-02,1.226603341545292325e-01,4.816976339669265528e-03,-1.042343522178064141e-01,-5.419806341788614701e-02,-6.544093209899720653e-02
8.120220623533305759e-02,1.129190877924175218e-01,8.206403764289244007e-02,-6.487431966964006536e-02,3.939063257054054024e-02,-7.555175299787246501e-02,-3.238681590679083622e-02,-8.493646558122004697e-02,-1.451359423245246472e-01,-8.859626109356220913e-02
-6.950237929971732342e-02,-7.090042668023166517e-02,-1.140310106150884684e-01,4.178617213155857990e-02,2.570766553323999837e-02,-3.023774503878425002e-02,-8.653186614636902696e-02,1.927275591527680132e-02,5.111439370818290917e-02,1.188233782983053877e-01
-3.235846868090883066e-02,-7.651183131031602525e-02,1.388537970351556849e-01,5.584777150307473903e-02,3.627842293567462573e-02,7.390059637364829181e-02,1.060533656105291656e-01,-2.059520266693770640e-02,1.194617717015314384e-02,-7.804068495037677633e-02
9.309231794582487063e-02,6.013385893065198440e-02,8.626491531362870391e-02,-1.204448510469148248e-01,-1.009015467121169296e-01,2.518621737613405132e-02,3.364053013041468088e-02,-1.249021303648428782e-03,-1.422415875424051512e-01,4.921944887486312536e-02
-1.614061098442404196e-02,8.207960118820259443e-02,-4.922254428126957015e-02,1.307720018247861826e-01,6.010020098656171372e-02,-1.081120632240266388e-01,-1.391176253056734535e-01,-1.245672224578286968e-02,-1.251058782377396650e-01,5.748567248425145992e-02
7.925944985760660644e-02,7.608787568996899786e-02,8.230458801725573648e-02,-1.305224881477901333e-01,6.175741892339725592e-02,-1.295004302804877994e-01,1.639903312606960650e-02,5.306504252865953952e-02,1.071547248682611364e-01,9.792076632042850948e-02
8.133659877044135955e-02,6.643150118747326305e-02,9.750080165290347933e-02,-1.161515578582957287e-01,-1.356600593582779346e-01,-1.316709610643547468e-01,7.924227377069545386e-02,4.650018129667957134e-02,1.084204923168738399e-02,2.938033024991484887e-02
4.677238025550378708e-02,1.717808613141952323e-02,1.166821625311685595e-01,3.394886803002769571e-02,-3.249123018831973075e-02,-1.212464836680414854e-01,7.752158483949128653e-02,1.498708201002237617e-01,-1.468820999013239759e-01,6.820624006698014496e-02
-1.007420099895130483e-01,-3.023251988206920871e-02,3.710457321675356135e-02,-1.167966939571501717e-01,1.335885250660159007e-01,-1.436431930118284572e-01,-9.024630269881872557e-03,3.734222416076349305e-04,-2.488548717083732820e-02,1.962972040048552302e-02
-5.634030293051751903e-02,2.039689623919790917e-02,-3.654755048960342534e-02,-1.161972349888755196e-01,-9.299442446044613175e-02,-9.910334112163113329e-02,6.331872878255198622e-02,2.576238038965100730e-02,4.644386280683282520e-03,9.271676579348603342e-03
2.672306461639181729e-02,1.450797717223936967e-01,-7.495521364975675505e-02,-1.246525277268283743e-01,9.799538379034972158e-02,1.861714721287077712e-02,1.491921568747599236e-01,-4.255153855165691446e-02,1.492769992061787343e-01,4.146290654270198828e-02
6.021371805260494758e-02,2.573545765363000060e-02,-1.205172039818552948e-01,-7.632993155333578361e-02,1.454528585544868358e-01,1.398537813144373754e-02,1.043917205305743001e-01,-6.077408126652260323e-02,-7.612232470176999444e-02,2.207657944159410746e-02
-5.592062905824118912e-03,8.428692561500361613e-03,-6.235111299868396906e-02,-5.737584386848455786e-02,-3.327073934319806081e-02,-5.947976369215263182e-03,-7.334736887576562281e-02,-7.324567948816120000e-02,1.344059627152075775e-01,5.642678797059935691e-02
